<?xml version="1.0"?>
<opencv_storage>
<opencv_ml_svm>
  <format>3</format>
  <svmType>C_SVC</svmType>
  <kernel>
    <type>CHI2</type>
    <gamma>5.</gamma></kernel>
  <C>10.</C>
  <term_criteria><epsilon>5.0000000000000002e-05</epsilon>
    <iterations>80000</iterations></term_criteria>
  <var_count>2</var_count>
  <class_count>6</class_count>
  <class_labels type_id="opencv-matrix">
    <rows>6</rows>
    <cols>1</cols>
    <dt>i</dt>
    <data>
      98 103 111 114 119 121</data></class_labels>
  <sv_total>1969</sv_total>
  <support_vectors>
    <_>
      9.72067058e-01 6.15686297e-01</_>
    <_>
      9.72067058e-01 6.15686297e-01</_>
    <_>
      9.77653623e-01 5.56862772e-01</_>
    <_>
      9.83240247e-01 6.00000024e-01</_>
    <_>
      9.72067058e-01 6.23529434e-01</_>
    <_>
      9.77653623e-01 6.11764729e-01</_>
    <_>
      9.77653623e-01 6.00000024e-01</_>
    <_>
      9.77653623e-01 6.03921592e-01</_>
    <_>
      9.72067058e-01 6.27451003e-01</_>
    <_>
      9.77653623e-01 6.15686297e-01</_>
    <_>
      9.77653623e-01 6.11764729e-01</_>
    <_>
      9.72067058e-01 6.31372571e-01</_>
    <_>
      9.72067058e-01 6.31372571e-01</_>
    <_>
      9.72067058e-01 6.19607866e-01</_>
    <_>
      9.72067058e-01 6.15686297e-01</_>
    <_>
      9.72067058e-01 6.27451003e-01</_>
    <_>
      9.72067058e-01 6.27451003e-01</_>
    <_>
      9.72067058e-01 6.15686297e-01</_>
    <_>
      9.72067058e-01 6.15686297e-01</_>
    <_>
      9.72067058e-01 6.27451003e-01</_>
    <_>
      9.72067058e-01 6.19607866e-01</_>
    <_>
      9.72067058e-01 6.31372571e-01</_>
    <_>
      9.72067058e-01 6.43137276e-01</_>
    <_>
      9.72067058e-01 6.23529434e-01</_>
    <_>
      9.72067058e-01 6.23529434e-01</_>
    <_>
      9.77653623e-01 5.96078455e-01</_>
    <_>
      9.72067058e-01 6.35294139e-01</_>
    <_>
      7.70949721e-01 4.27450985e-01</_>
    <_>
      8.37988853e-01 7.84313753e-02</_>
    <_>
      9.55307245e-01 3.96078438e-01</_>
    <_>
      8.37988853e-01 2.11764708e-01</_>
    <_>
      9.55307245e-01 2.54901975e-01</_>
    <_>
      9.72067058e-01 6.23529434e-01</_>
    <_>
      9.66480434e-01 3.17647070e-01</_>
    <_>
      9.77653623e-01 5.60784340e-01</_>
    <_>
      9.77653623e-01 5.45098066e-01</_>
    <_>
      9.77653623e-01 5.41176498e-01</_>
    <_>
      9.77653623e-01 5.49019635e-01</_>
    <_>
      9.77653623e-01 5.45098066e-01</_>
    <_>
      9.77653623e-01 5.56862772e-01</_>
    <_>
      9.77653623e-01 5.64705908e-01</_>
    <_>
      9.77653623e-01 5.49019635e-01</_>
    <_>
      9.77653623e-01 5.52941203e-01</_>
    <_>
      9.77653623e-01 5.68627477e-01</_>
    <_>
      9.77653623e-01 5.56862772e-01</_>
    <_>
      9.77653623e-01 5.68627477e-01</_>
    <_>
      9.77653623e-01 5.64705908e-01</_>
    <_>
      9.77653623e-01 5.64705908e-01</_>
    <_>
      9.77653623e-01 5.64705908e-01</_>
    <_>
      9.77653623e-01 5.72549045e-01</_>
    <_>
      9.77653623e-01 5.68627477e-01</_>
    <_>
      9.77653623e-01 5.76470613e-01</_>
    <_>
      9.77653623e-01 5.56862772e-01</_>
    <_>
      9.77653623e-01 5.68627477e-01</_>
    <_>
      9.72067058e-01 6.47058845e-01</_>
    <_>
      9.72067058e-01 6.23529434e-01</_>
    <_>
      9.77653623e-01 6.07843161e-01</_>
    <_>
      9.72067058e-01 6.23529434e-01</_>
    <_>
      9.77653623e-01 5.92156887e-01</_>
    <_>
      9.72067058e-01 6.27451003e-01</_>
    <_>
      9.72067058e-01 6.19607866e-01</_>
    <_>
      9.72067058e-01 6.23529434e-01</_>
    <_>
      9.72067058e-01 6.27451003e-01</_>
    <_>
      9.72067058e-01 6.19607866e-01</_>
    <_>
      9.72067058e-01 6.23529434e-01</_>
    <_>
      9.72067058e-01 6.23529434e-01</_>
    <_>
      9.72067058e-01 6.19607866e-01</_>
    <_>
      9.72067058e-01 6.19607866e-01</_>
    <_>
      9.72067058e-01 6.31372571e-01</_>
    <_>
      9.72067058e-01 6.35294139e-01</_>
    <_>
      9.77653623e-01 5.84313750e-01</_>
    <_>
      9.77653623e-01 6.07843161e-01</_>
    <_>
      9.72067058e-01 6.47058845e-01</_>
    <_>
      9.72067058e-01 6.19607866e-01</_>
    <_>
      9.72067058e-01 6.23529434e-01</_>
    <_>
      9.72067058e-01 6.27451003e-01</_>
    <_>
      9.72067058e-01 6.23529434e-01</_>
    <_>
      3.91061455e-01 1.96078438e-02</_>
    <_>
      4.80446935e-01 7.41176486e-01</_>
    <_>
      3.46368700e-01 3.76470596e-01</_>
    <_>
      4.30167586e-01 5.72549045e-01</_>
    <_>
      5.58659196e-01 6.19607866e-01</_>
    <_>
      6.03351951e-01 4.62745100e-01</_>
    <_>
      5.86592197e-01 8.35294127e-01</_>
    <_>
      6.31284893e-01 4.54901963e-01</_>
    <_>
      6.36871517e-01 4.39215690e-01</_>
    <_>
      6.36871517e-01 4.15686280e-01</_>
    <_>
      4.18994427e-01 3.37254912e-01</_>
    <_>
      6.03351951e-01 5.56862772e-01</_>
    <_>
      6.36871517e-01 4.15686280e-01</_>
    <_>
      6.36871517e-01 4.39215690e-01</_>
    <_>
      6.36871517e-01 4.27450985e-01</_>
    <_>
      6.20111704e-01 3.56862754e-01</_>
    <_>
      4.63687152e-01 3.52941185e-01</_>
    <_>
      5.92178762e-01 4.23529416e-01</_>
    <_>
      6.36871517e-01 3.72549027e-01</_>
    <_>
      6.59217894e-01 3.25490206e-01</_>
    <_>
      6.48044705e-01 3.25490206e-01</_>
    <_>
      6.20111704e-01 2.94117659e-01</_>
    <_>
      6.48044705e-01 3.25490206e-01</_>
    <_>
      5.75419009e-01 4.74509805e-01</_>
    <_>
      5.64245820e-01 5.33333361e-01</_>
    <_>
      5.47486007e-01 5.05882382e-01</_>
    <_>
      5.58659196e-01 5.29411793e-01</_>
    <_>
      9.88826811e-01 5.64705908e-01</_>
    <_>
      9.88826811e-01 5.68627477e-01</_>
    <_>
      9.88826811e-01 5.72549045e-01</_>
    <_>
      9.88826811e-01 5.80392182e-01</_>
    <_>
      9.88826811e-01 4.86274511e-01</_>
    <_>
      9.88826811e-01 6.27451003e-01</_>
    <_>
      9.88826811e-01 5.29411793e-01</_>
    <_>
      9.88826811e-01 5.88235319e-01</_>
    <_>
      9.88826811e-01 5.72549045e-01</_>
    <_>
      9.88826811e-01 5.05882382e-01</_>
    <_>
      9.88826811e-01 5.80392182e-01</_>
    <_>
      9.88826811e-01 5.68627477e-01</_>
    <_>
      9.88826811e-01 5.72549045e-01</_>
    <_>
      9.83240247e-01 4.66666669e-01</_>
    <_>
      9.88826811e-01 5.29411793e-01</_>
    <_>
      9.83240247e-01 5.45098066e-01</_>
    <_>
      9.88826811e-01 5.37254930e-01</_>
    <_>
      9.88826811e-01 5.52941203e-01</_>
    <_>
      9.66480434e-01 5.05882382e-01</_>
    <_>
      9.83240247e-01 5.29411793e-01</_>
    <_>
      9.88826811e-01 5.21568656e-01</_>
    <_>
      9.77653623e-01 5.37254930e-01</_>
    <_>
      9.83240247e-01 5.45098066e-01</_>
    <_>
      9.88826811e-01 5.72549045e-01</_>
    <_>
      9.77653623e-01 5.33333361e-01</_>
    <_>
      9.88826811e-01 5.25490224e-01</_>
    <_>
      9.88826811e-01 4.94117647e-01</_>
    <_>
      9.88826811e-01 5.45098066e-01</_>
    <_>
      9.88826811e-01 4.94117647e-01</_>
    <_>
      9.83240247e-01 6.03921592e-01</_>
    <_>
      9.83240247e-01 5.76470613e-01</_>
    <_>
      9.83240247e-01 4.90196079e-01</_>
    <_>
      9.88826811e-01 5.17647088e-01</_>
    <_>
      9.88826811e-01 5.37254930e-01</_>
    <_>
      9.88826811e-01 5.25490224e-01</_>
    <_>
      9.88826811e-01 5.37254930e-01</_>
    <_>
      9.88826811e-01 5.17647088e-01</_>
    <_>
      9.88826811e-01 5.60784340e-01</_>
    <_>
      9.83240247e-01 5.68627477e-01</_>
    <_>
      9.77653623e-01 4.66666669e-01</_>
    <_>
      9.88826811e-01 5.45098066e-01</_>
    <_>
      9.88826811e-01 5.60784340e-01</_>
    <_>
      9.88826811e-01 5.68627477e-01</_>
    <_>
      9.88826811e-01 5.72549045e-01</_>
    <_>
      9.88826811e-01 5.88235319e-01</_>
    <_>
      9.88826811e-01 5.84313750e-01</_>
    <_>
      9.83240247e-01 4.82352942e-01</_>
    <_>
      9.88826811e-01 5.60784340e-01</_>
    <_>
      9.88826811e-01 5.01960814e-01</_>
    <_>
      9.88826811e-01 5.25490224e-01</_>
    <_>
      9.83240247e-01 4.66666669e-01</_>
    <_>
      9.88826811e-01 5.09803951e-01</_>
    <_>
      9.88826811e-01 5.45098066e-01</_>
    <_>
      9.83240247e-01 6.86274529e-01</_>
    <_>
      9.83240247e-01 5.09803951e-01</_>
    <_>
      9.83240247e-01 5.01960814e-01</_>
    <_>
      9.88826811e-01 5.33333361e-01</_>
    <_>
      9.66480434e-01 8.35294127e-01</_>
    <_>
      9.27374303e-01 9.88235295e-01</_>
    <_>
      9.66480434e-01 7.96078444e-01</_>
    <_>
      9.66480434e-01 8.19607854e-01</_>
    <_>
      9.66480434e-01 8.15686285e-01</_>
    <_>
      9.66480434e-01 7.88235307e-01</_>
    <_>
      6.70391083e-01 5.09803928e-02</_>
    <_>
      6.53631270e-01 9.41176489e-02</_>
    <_>
      6.42458081e-01 3.13725509e-02</_>
    <_>
      6.03351951e-01 1.13725491e-01</_>
    <_>
      9.88826811e-01 6.66666687e-01</_>
    <_>
      9.88826811e-01 7.17647076e-01</_>
    <_>
      9.88826811e-01 6.58823550e-01</_>
    <_>
      9.88826811e-01 6.62745118e-01</_>
    <_>
      9.88826811e-01 6.54901981e-01</_>
    <_>
      9.88826811e-01 6.62745118e-01</_>
    <_>
      9.88826811e-01 6.31372571e-01</_>
    <_>
      9.88826811e-01 6.62745118e-01</_>
    <_>
      9.88826811e-01 6.47058845e-01</_>
    <_>
      9.88826811e-01 6.50980413e-01</_>
    <_>
      9.88826811e-01 6.82352960e-01</_>
    <_>
      9.88826811e-01 6.98039234e-01</_>
    <_>
      9.88826811e-01 6.86274529e-01</_>
    <_>
      9.83240247e-01 6.94117665e-01</_>
    <_>
      9.88826811e-01 7.01960802e-01</_>
    <_>
      9.88826811e-01 6.54901981e-01</_>
    <_>
      9.88826811e-01 6.54901981e-01</_>
    <_>
      9.88826811e-01 6.66666687e-01</_>
    <_>
      9.88826811e-01 6.47058845e-01</_>
    <_>
      9.88826811e-01 6.62745118e-01</_>
    <_>
      9.88826811e-01 6.58823550e-01</_>
    <_>
      9.88826811e-01 6.78431392e-01</_>
    <_>
      9.88826811e-01 6.54901981e-01</_>
    <_>
      9.88826811e-01 6.90196097e-01</_>
    <_>
      9.83240247e-01 6.86274529e-01</_>
    <_>
      9.83240247e-01 6.94117665e-01</_>
    <_>
      9.88826811e-01 6.82352960e-01</_>
    <_>
      9.88826811e-01 6.86274529e-01</_>
    <_>
      9.83240247e-01 6.94117665e-01</_>
    <_>
      9.88826811e-01 6.07843161e-01</_>
    <_>
      9.88826811e-01 6.50980413e-01</_>
    <_>
      9.88826811e-01 6.58823550e-01</_>
    <_>
      9.88826811e-01 6.54901981e-01</_>
    <_>
      9.83240247e-01 6.54901981e-01</_>
    <_>
      9.88826811e-01 6.62745118e-01</_>
    <_>
      9.88826811e-01 6.47058845e-01</_>
    <_>
      9.88826811e-01 6.58823550e-01</_>
    <_>
      9.83240247e-01 6.98039234e-01</_>
    <_>
      9.88826811e-01 6.90196097e-01</_>
    <_>
      9.88826811e-01 6.78431392e-01</_>
    <_>
      9.83240247e-01 6.78431392e-01</_>
    <_>
      9.83240247e-01 6.58823550e-01</_>
    <_>
      9.88826811e-01 6.47058845e-01</_>
    <_>
      9.88826811e-01 6.62745118e-01</_>
    <_>
      9.88826811e-01 6.62745118e-01</_>
    <_>
      9.88826811e-01 6.62745118e-01</_>
    <_>
      9.88826811e-01 6.54901981e-01</_>
    <_>
      9.88826811e-01 6.90196097e-01</_>
    <_>
      9.88826811e-01 6.90196097e-01</_>
    <_>
      9.88826811e-01 6.90196097e-01</_>
    <_>
      9.88826811e-01 6.94117665e-01</_>
    <_>
      9.88826811e-01 6.70588255e-01</_>
    <_>
      9.83240247e-01 6.98039234e-01</_>
    <_>
      9.88826811e-01 6.66666687e-01</_>
    <_>
      9.88826811e-01 6.82352960e-01</_>
    <_>
      9.88826811e-01 6.78431392e-01</_>
    <_>
      9.88826811e-01 6.86274529e-01</_>
    <_>
      9.88826811e-01 6.98039234e-01</_>
    <_>
      9.88826811e-01 6.62745118e-01</_>
    <_>
      9.83240247e-01 6.82352960e-01</_>
    <_>
      9.88826811e-01 6.54901981e-01</_>
    <_>
      9.88826811e-01 6.74509823e-01</_>
    <_>
      9.88826811e-01 6.50980413e-01</_>
    <_>
      9.88826811e-01 6.74509823e-01</_>
    <_>
      9.83240247e-01 6.90196097e-01</_>
    <_>
      9.88826811e-01 6.58823550e-01</_>
    <_>
      9.88826811e-01 6.54901981e-01</_>
    <_>
      9.88826811e-01 6.74509823e-01</_>
    <_>
      9.88826811e-01 6.94117665e-01</_>
    <_>
      9.83240247e-01 7.01960802e-01</_>
    <_>
      9.88826811e-01 6.39215708e-01</_>
    <_>
      9.88826811e-01 6.70588255e-01</_>
    <_>
      9.88826811e-01 7.05882370e-01</_>
    <_>
      9.88826811e-01 6.86274529e-01</_>
    <_>
      9.88826811e-01 6.74509823e-01</_>
    <_>
      9.88826811e-01 6.90196097e-01</_>
    <_>
      9.88826811e-01 6.62745118e-01</_>
    <_>
      9.88826811e-01 6.74509823e-01</_>
    <_>
      9.88826811e-01 6.74509823e-01</_>
    <_>
      9.88826811e-01 6.66666687e-01</_>
    <_>
      9.88826811e-01 6.66666687e-01</_>
    <_>
      9.88826811e-01 6.62745118e-01</_>
    <_>
      9.88826811e-01 6.62745118e-01</_>
    <_>
      9.88826811e-01 6.70588255e-01</_>
    <_>
      9.88826811e-01 6.62745118e-01</_>
    <_>
      9.88826811e-01 6.82352960e-01</_>
    <_>
      9.88826811e-01 6.82352960e-01</_>
    <_>
      9.88826811e-01 6.27451003e-01</_>
    <_>
      9.88826811e-01 6.70588255e-01</_>
    <_>
      9.88826811e-01 6.43137276e-01</_>
    <_>
      9.88826811e-01 6.66666687e-01</_>
    <_>
      9.88826811e-01 6.54901981e-01</_>
    <_>
      9.88826811e-01 6.78431392e-01</_>
    <_>
      9.88826811e-01 6.35294139e-01</_>
    <_>
      9.88826811e-01 6.39215708e-01</_>
    <_>
      9.88826811e-01 6.23529434e-01</_>
    <_>
      9.88826811e-01 6.54901981e-01</_>
    <_>
      9.88826811e-01 6.35294139e-01</_>
    <_>
      9.88826811e-01 6.11764729e-01</_>
    <_>
      9.88826811e-01 6.11764729e-01</_>
    <_>
      9.88826811e-01 6.11764729e-01</_>
    <_>
      9.88826811e-01 6.39215708e-01</_>
    <_>
      9.88826811e-01 6.35294139e-01</_>
    <_>
      9.88826811e-01 6.23529434e-01</_>
    <_>
      9.88826811e-01 6.11764729e-01</_>
    <_>
      9.88826811e-01 6.23529434e-01</_>
    <_>
      9.88826811e-01 6.27451003e-01</_>
    <_>
      9.72067058e-01 7.64705896e-01</_>
    <_>
      9.66480434e-01 7.96078444e-01</_>
    <_>
      9.72067058e-01 7.49019623e-01</_>
    <_>
      9.72067058e-01 7.45098054e-01</_>
    <_>
      9.72067058e-01 7.05882370e-01</_>
    <_>
      9.72067058e-01 7.56862760e-01</_>
    <_>
      9.72067058e-01 7.41176486e-01</_>
    <_>
      9.72067058e-01 6.23529434e-01</_>
    <_>
      9.72067058e-01 7.29411781e-01</_>
    <_>
      9.72067058e-01 7.45098054e-01</_>
    <_>
      9.72067058e-01 7.21568644e-01</_>
    <_>
      9.72067058e-01 7.80392170e-01</_>
    <_>
      9.72067058e-01 7.80392170e-01</_>
    <_>
      9.72067058e-01 7.37254918e-01</_>
    <_>
      9.72067058e-01 7.37254918e-01</_>
    <_>
      9.66480434e-01 7.92156875e-01</_>
    <_>
      9.72067058e-01 7.21568644e-01</_>
    <_>
      9.72067058e-01 7.25490212e-01</_>
    <_>
      9.72067058e-01 7.64705896e-01</_>
    <_>
      9.72067058e-01 7.21568644e-01</_>
    <_>
      9.72067058e-01 7.52941191e-01</_>
    <_>
      9.72067058e-01 7.41176486e-01</_>
    <_>
      9.72067058e-01 7.37254918e-01</_>
    <_>
      9.72067058e-01 7.37254918e-01</_>
    <_>
      9.72067058e-01 7.45098054e-01</_>
    <_>
      9.72067058e-01 7.68627465e-01</_>
    <_>
      9.72067058e-01 7.52941191e-01</_>
    <_>
      9.72067058e-01 7.52941191e-01</_>
    <_>
      9.72067058e-01 7.56862760e-01</_>
    <_>
      9.72067058e-01 7.21568644e-01</_>
    <_>
      9.72067058e-01 7.41176486e-01</_>
    <_>
      9.72067058e-01 7.56862760e-01</_>
    <_>
      9.72067058e-01 7.29411781e-01</_>
    <_>
      9.72067058e-01 7.41176486e-01</_>
    <_>
      9.72067058e-01 7.33333349e-01</_>
    <_>
      9.72067058e-01 7.84313738e-01</_>
    <_>
      9.72067058e-01 7.25490212e-01</_>
    <_>
      9.72067058e-01 7.33333349e-01</_>
    <_>
      9.72067058e-01 7.37254918e-01</_>
    <_>
      9.72067058e-01 7.49019623e-01</_>
    <_>
      9.72067058e-01 7.33333349e-01</_>
    <_>
      9.72067058e-01 7.25490212e-01</_>
    <_>
      9.66480434e-01 7.88235307e-01</_>
    <_>
      9.72067058e-01 7.21568644e-01</_>
    <_>
      9.72067058e-01 7.29411781e-01</_>
    <_>
      9.72067058e-01 7.25490212e-01</_>
    <_>
      9.72067058e-01 7.29411781e-01</_>
    <_>
      9.72067058e-01 7.41176486e-01</_>
    <_>
      9.72067058e-01 7.49019623e-01</_>
    <_>
      9.72067058e-01 7.49019623e-01</_>
    <_>
      9.72067058e-01 7.49019623e-01</_>
    <_>
      2.23463681e-02 2.66666681e-01</_>
    <_>
      0. 2.11764708e-01</_>
    <_>
      9.72067058e-01 3.88235301e-01</_>
    <_>
      9.49720681e-01 6.27451017e-02</_>
    <_>
      9.16201115e-01 1.13725491e-01</_>
    <_>
      5.02793312e-01 1.17647059e-01</_>
    <_>
      3.35195541e-01 1.17647061e-02</_>
    <_>
      6.70391083e-01 1.60784319e-01</_>
    <_>
      5.58659196e-01 1.56862754e-02</_>
    <_>
      5.86592197e-01 1.41176477e-01</_>
    <_>
      3.35195541e-01 3.92156877e-02</_>
    <_>
      5.86592197e-01 3.80392164e-01</_>
    <_>
      2.40223467e-01 1.21568628e-01</_>
    <_>
      2.51396656e-01 1.25490203e-01</_>
    <_>
      5.02793312e-01 1.41176477e-01</_>
    <_>
      2.84916192e-01 8.23529437e-02</_>
    <_>
      3.91061455e-01 2.86274523e-01</_>
    <_>
      3.57541889e-01 3.13725509e-02</_>
    <_>
      5.02793312e-01 8.23529437e-02</_>
    <_>
      5.58659196e-01 7.05882385e-02</_>
    <_>
      5.86592197e-01 8.23529437e-02</_>
    <_>
      3.91061455e-01 1.17647061e-02</_>
    <_>
      2.68156439e-01 1.52941182e-01</_>
    <_>
      2.12290496e-01 1.05882354e-01</_>
    <_>
      2.96089381e-01 1.25490203e-01</_>
    <_>
      2.79329598e-01 1.25490203e-01</_>
    <_>
      2.84916192e-01 5.84313750e-01</_>
    <_>
      2.62569845e-01 4.82352942e-01</_>
    <_>
      4.52513963e-01 3.49019617e-01</_>
    <_>
      3.91061455e-01 5.09803928e-02</_>
    <_>
      3.35195541e-01 6.66666701e-02</_>
    <_>
      3.07262570e-01 2.35294122e-02</_>
    <_>
      5.47486007e-01 7.84313753e-02</_>
    <_>
      4.35754180e-01 1.21568628e-01</_>
    <_>
      9.77653623e-01 6.07843161e-01</_>
    <_>
      9.83240247e-01 5.92156887e-01</_>
    <_>
      9.77653623e-01 5.72549045e-01</_>
    <_>
      9.77653623e-01 5.84313750e-01</_>
    <_>
      9.77653623e-01 5.96078455e-01</_>
    <_>
      9.77653623e-01 5.80392182e-01</_>
    <_>
      9.77653623e-01 5.76470613e-01</_>
    <_>
      9.72067058e-01 6.19607866e-01</_>
    <_>
      9.77653623e-01 5.80392182e-01</_>
    <_>
      9.77653623e-01 6.11764729e-01</_>
    <_>
      9.72067058e-01 6.27451003e-01</_>
    <_>
      9.77653623e-01 5.80392182e-01</_>
    <_>
      9.77653623e-01 5.76470613e-01</_>
    <_>
      9.77653623e-01 5.88235319e-01</_>
    <_>
      9.72067058e-01 6.19607866e-01</_>
    <_>
      9.72067058e-01 6.31372571e-01</_>
    <_>
      9.83240247e-01 5.84313750e-01</_>
    <_>
      9.83240247e-01 5.88235319e-01</_>
    <_>
      9.77653623e-01 5.84313750e-01</_>
    <_>
      9.77653623e-01 5.88235319e-01</_>
    <_>
      9.72067058e-01 6.43137276e-01</_>
    <_>
      9.72067058e-01 6.39215708e-01</_>
    <_>
      9.77653623e-01 5.96078455e-01</_>
    <_>
      9.77653623e-01 5.84313750e-01</_>
    <_>
      9.77653623e-01 6.03921592e-01</_>
    <_>
      9.77653623e-01 5.88235319e-01</_>
    <_>
      9.72067058e-01 6.27451003e-01</_>
    <_>
      9.77653623e-01 5.88235319e-01</_>
    <_>
      9.72067058e-01 6.19607866e-01</_>
    <_>
      9.72067058e-01 6.39215708e-01</_>
    <_>
      9.72067058e-01 6.35294139e-01</_>
    <_>
      9.72067058e-01 6.35294139e-01</_>
    <_>
      9.72067058e-01 6.35294139e-01</_>
    <_>
      9.72067058e-01 6.15686297e-01</_>
    <_>
      9.66480434e-01 3.84313732e-01</_>
    <_>
      9.83240247e-01 5.68627477e-01</_>
    <_>
      0. 7.76470602e-01</_>
    <_>
      9.88826811e-01 4.98039216e-01</_>
    <_>
      9.88826811e-01 6.19607866e-01</_>
    <_>
      3.35195549e-02 3.41176480e-01</_>
    <_>
      9.88826811e-01 7.56862760e-01</_>
    <_>
      9.72067058e-01 4.11764711e-01</_>
    <_>
      9.83240247e-01 4.35294122e-01</_>
    <_>
      9.77653623e-01 4.07843143e-01</_>
    <_>
      9.66480434e-01 7.84313738e-01</_>
    <_>
      9.72067058e-01 7.76470602e-01</_>
    <_>
      9.83240247e-01 5.88235319e-01</_>
    <_>
      9.88826811e-01 5.84313750e-01</_>
    <_>
      9.88826811e-01 5.68627477e-01</_>
    <_>
      9.88826811e-01 5.49019635e-01</_>
    <_>
      9.88826811e-01 5.76470613e-01</_>
    <_>
      9.88826811e-01 5.84313750e-01</_>
    <_>
      9.88826811e-01 5.68627477e-01</_>
    <_>
      9.88826811e-01 5.60784340e-01</_>
    <_>
      9.88826811e-01 5.60784340e-01</_>
    <_>
      9.88826811e-01 5.45098066e-01</_>
    <_>
      9.77653623e-01 5.68627477e-01</_>
    <_>
      9.77653623e-01 5.76470613e-01</_>
    <_>
      9.77653623e-01 5.88235319e-01</_>
    <_>
      9.83240247e-01 5.88235319e-01</_>
    <_>
      9.88826811e-01 5.76470613e-01</_>
    <_>
      9.88826811e-01 5.72549045e-01</_>
    <_>
      9.88826811e-01 5.72549045e-01</_>
    <_>
      9.88826811e-01 5.84313750e-01</_>
    <_>
      9.88826811e-01 5.88235319e-01</_>
    <_>
      9.88826811e-01 5.72549045e-01</_>
    <_>
      9.88826811e-01 5.68627477e-01</_>
    <_>
      9.88826811e-01 5.37254930e-01</_>
    <_>
      9.88826811e-01 5.52941203e-01</_>
    <_>
      9.88826811e-01 5.68627477e-01</_>
    <_>
      9.88826811e-01 5.56862772e-01</_>
    <_>
      9.83240247e-01 5.56862772e-01</_>
    <_>
      9.77653623e-01 5.68627477e-01</_>
    <_>
      9.77653623e-01 5.76470613e-01</_>
    <_>
      9.77653623e-01 5.84313750e-01</_>
    <_>
      9.88826811e-01 5.76470613e-01</_>
    <_>
      9.88826811e-01 5.64705908e-01</_>
    <_>
      9.83240247e-01 5.68627477e-01</_>
    <_>
      9.77653623e-01 5.76470613e-01</_>
    <_>
      9.83240247e-01 5.64705908e-01</_>
    <_>
      9.88826811e-01 5.60784340e-01</_>
    <_>
      9.88826811e-01 5.60784340e-01</_>
    <_>
      9.88826811e-01 5.52941203e-01</_>
    <_>
      9.88826811e-01 5.52941203e-01</_>
    <_>
      9.77653623e-01 5.60784340e-01</_>
    <_>
      9.77653623e-01 5.68627477e-01</_>
    <_>
      9.77653623e-01 5.76470613e-01</_>
    <_>
      9.77653623e-01 5.84313750e-01</_>
    <_>
      9.88826811e-01 5.56862772e-01</_>
    <_>
      9.77653623e-01 5.64705908e-01</_>
    <_>
      9.77653623e-01 5.64705908e-01</_>
    <_>
      9.83240247e-01 5.72549045e-01</_>
    <_>
      9.88826811e-01 5.52941203e-01</_>
    <_>
      9.88826811e-01 5.60784340e-01</_>
    <_>
      9.88826811e-01 5.56862772e-01</_>
    <_>
      9.88826811e-01 5.64705908e-01</_>
    <_>
      9.88826811e-01 5.72549045e-01</_>
    <_>
      9.88826811e-01 5.60784340e-01</_>
    <_>
      9.77653623e-01 5.60784340e-01</_>
    <_>
      9.77653623e-01 5.64705908e-01</_>
    <_>
      9.77653623e-01 5.76470613e-01</_>
    <_>
      9.83240247e-01 5.68627477e-01</_>
    <_>
      9.88826811e-01 5.60784340e-01</_>
    <_>
      9.88826811e-01 5.76470613e-01</_>
    <_>
      9.77653623e-01 5.68627477e-01</_>
    <_>
      9.83240247e-01 5.68627477e-01</_>
    <_>
      9.88826811e-01 5.56862772e-01</_>
    <_>
      9.88826811e-01 5.80392182e-01</_>
    <_>
      9.88826811e-01 5.84313750e-01</_>
    <_>
      9.83240247e-01 5.72549045e-01</_>
    <_>
      9.83240247e-01 5.76470613e-01</_>
    <_>
      9.77653623e-01 5.84313750e-01</_>
    <_>
      9.83240247e-01 5.76470613e-01</_>
    <_>
      9.83240247e-01 5.68627477e-01</_>
    <_>
      9.88826811e-01 5.64705908e-01</_>
    <_>
      9.88826811e-01 5.64705908e-01</_>
    <_>
      9.77653623e-01 5.76470613e-01</_>
    <_>
      9.88826811e-01 5.29411793e-01</_>
    <_>
      9.88826811e-01 5.41176498e-01</_>
    <_>
      9.88826811e-01 5.76470613e-01</_>
    <_>
      9.83240247e-01 5.52941203e-01</_>
    <_>
      9.88826811e-01 5.80392182e-01</_>
    <_>
      9.88826811e-01 5.52941203e-01</_>
    <_>
      9.83240247e-01 5.64705908e-01</_>
    <_>
      9.83240247e-01 5.68627477e-01</_>
    <_>
      9.83240247e-01 5.60784340e-01</_>
    <_>
      9.83240247e-01 5.56862772e-01</_>
    <_>
      9.88826811e-01 5.60784340e-01</_>
    <_>
      9.88826811e-01 5.60784340e-01</_>
    <_>
      9.88826811e-01 5.52941203e-01</_>
    <_>
      9.83240247e-01 5.49019635e-01</_>
    <_>
      9.88826811e-01 5.64705908e-01</_>
    <_>
      9.88826811e-01 5.72549045e-01</_>
    <_>
      9.88826811e-01 5.84313750e-01</_>
    <_>
      9.88826811e-01 6.03921592e-01</_>
    <_>
      9.88826811e-01 5.76470613e-01</_>
    <_>
      9.88826811e-01 5.68627477e-01</_>
    <_>
      9.88826811e-01 5.60784340e-01</_>
    <_>
      9.83240247e-01 5.52941203e-01</_>
    <_>
      9.83240247e-01 5.56862772e-01</_>
    <_>
      9.88826811e-01 5.60784340e-01</_>
    <_>
      9.88826811e-01 5.64705908e-01</_>
    <_>
      9.88826811e-01 5.52941203e-01</_>
    <_>
      9.88826811e-01 5.68627477e-01</_>
    <_>
      9.88826811e-01 5.76470613e-01</_>
    <_>
      9.88826811e-01 5.60784340e-01</_>
    <_>
      9.88826811e-01 5.52941203e-01</_>
    <_>
      9.88826811e-01 5.68627477e-01</_>
    <_>
      9.88826811e-01 5.84313750e-01</_>
    <_>
      9.88826811e-01 5.84313750e-01</_>
    <_>
      9.88826811e-01 5.72549045e-01</_>
    <_>
      9.83240247e-01 5.68627477e-01</_>
    <_>
      9.83240247e-01 5.72549045e-01</_>
    <_>
      9.77653623e-01 5.80392182e-01</_>
    <_>
      9.77653623e-01 5.80392182e-01</_>
    <_>
      9.88826811e-01 5.60784340e-01</_>
    <_>
      9.88826811e-01 5.52941203e-01</_>
    <_>
      9.88826811e-01 5.49019635e-01</_>
    <_>
      9.88826811e-01 5.52941203e-01</_>
    <_>
      9.88826811e-01 5.60784340e-01</_>
    <_>
      9.88826811e-01 5.60784340e-01</_>
    <_>
      9.88826811e-01 5.68627477e-01</_>
    <_>
      9.88826811e-01 5.88235319e-01</_>
    <_>
      9.83240247e-01 5.76470613e-01</_>
    <_>
      9.88826811e-01 5.60784340e-01</_>
    <_>
      9.83240247e-01 5.64705908e-01</_>
    <_>
      9.83240247e-01 5.72549045e-01</_>
    <_>
      9.77653623e-01 5.68627477e-01</_>
    <_>
      9.83240247e-01 5.72549045e-01</_>
    <_>
      9.83240247e-01 5.72549045e-01</_>
    <_>
      9.88826811e-01 5.60784340e-01</_>
    <_>
      9.88826811e-01 5.56862772e-01</_>
    <_>
      9.88826811e-01 5.60784340e-01</_>
    <_>
      9.88826811e-01 5.76470613e-01</_>
    <_>
      9.88826811e-01 5.92156887e-01</_>
    <_>
      9.88826811e-01 5.84313750e-01</_>
    <_>
      9.88826811e-01 5.76470613e-01</_>
    <_>
      9.83240247e-01 5.76470613e-01</_>
    <_>
      9.88826811e-01 5.76470613e-01</_>
    <_>
      9.88826811e-01 5.60784340e-01</_>
    <_>
      9.83240247e-01 5.68627477e-01</_>
    <_>
      9.83240247e-01 5.72549045e-01</_>
    <_>
      9.83240247e-01 5.72549045e-01</_>
    <_>
      9.77653623e-01 5.76470613e-01</_>
    <_>
      9.77653623e-01 5.72549045e-01</_>
    <_>
      9.88826811e-01 5.60784340e-01</_>
    <_>
      9.88826811e-01 5.52941203e-01</_>
    <_>
      9.88826811e-01 5.60784340e-01</_>
    <_>
      9.88826811e-01 5.68627477e-01</_>
    <_>
      9.88826811e-01 5.96078455e-01</_>
    <_>
      9.83240247e-01 5.68627477e-01</_>
    <_>
      9.88826811e-01 5.64705908e-01</_>
    <_>
      9.88826811e-01 5.64705908e-01</_>
    <_>
      9.88826811e-01 5.64705908e-01</_>
    <_>
      9.88826811e-01 5.56862772e-01</_>
    <_>
      9.83240247e-01 5.68627477e-01</_>
    <_>
      9.83240247e-01 5.72549045e-01</_>
    <_>
      9.77653623e-01 5.84313750e-01</_>
    <_>
      9.72067058e-01 6.00000024e-01</_>
    <_>
      9.72067058e-01 5.96078455e-01</_>
    <_>
      9.88826811e-01 6.00000024e-01</_>
    <_>
      9.88826811e-01 5.80392182e-01</_>
    <_>
      9.88826811e-01 5.68627477e-01</_>
    <_>
      9.88826811e-01 5.76470613e-01</_>
    <_>
      9.88826811e-01 5.80392182e-01</_>
    <_>
      9.83240247e-01 5.64705908e-01</_>
    <_>
      9.88826811e-01 5.64705908e-01</_>
    <_>
      9.88826811e-01 5.84313750e-01</_>
    <_>
      9.88826811e-01 5.72549045e-01</_>
    <_>
      9.88826811e-01 5.60784340e-01</_>
    <_>
      9.83240247e-01 5.52941203e-01</_>
    <_>
      9.83240247e-01 5.68627477e-01</_>
    <_>
      9.83240247e-01 5.72549045e-01</_>
    <_>
      9.77653623e-01 5.80392182e-01</_>
    <_>
      9.72067058e-01 5.92156887e-01</_>
    <_>
      9.77653623e-01 5.88235319e-01</_>
    <_>
      9.88826811e-01 5.96078455e-01</_>
    <_>
      9.88826811e-01 5.92156887e-01</_>
    <_>
      9.88826811e-01 5.76470613e-01</_>
    <_>
      9.88826811e-01 5.72549045e-01</_>
    <_>
      9.88826811e-01 5.68627477e-01</_>
    <_>
      9.88826811e-01 5.52941203e-01</_>
    <_>
      9.88826811e-01 5.64705908e-01</_>
    <_>
      9.88826811e-01 5.76470613e-01</_>
    <_>
      9.88826811e-01 5.72549045e-01</_>
    <_>
      9.88826811e-01 5.56862772e-01</_>
    <_>
      9.83240247e-01 5.56862772e-01</_>
    <_>
      9.83240247e-01 5.56862772e-01</_>
    <_>
      9.72067058e-01 5.68627477e-01</_>
    <_>
      9.72067058e-01 5.84313750e-01</_>
    <_>
      9.77653623e-01 5.72549045e-01</_>
    <_>
      9.83240247e-01 5.68627477e-01</_>
    <_>
      9.88826811e-01 5.76470613e-01</_>
    <_>
      9.88826811e-01 5.68627477e-01</_>
    <_>
      9.88826811e-01 5.60784340e-01</_>
    <_>
      9.88826811e-01 5.56862772e-01</_>
    <_>
      9.88826811e-01 5.41176498e-01</_>
    <_>
      9.88826811e-01 5.60784340e-01</_>
    <_>
      9.88826811e-01 5.52941203e-01</_>
    <_>
      9.83240247e-01 5.33333361e-01</_>
    <_>
      9.77653623e-01 5.37254930e-01</_>
    <_>
      9.77653623e-01 5.88235319e-01</_>
    <_>
      9.77653623e-01 5.80392182e-01</_>
    <_>
      9.83240247e-01 5.84313750e-01</_>
    <_>
      9.88826811e-01 5.84313750e-01</_>
    <_>
      9.88826811e-01 5.76470613e-01</_>
    <_>
      9.88826811e-01 5.60784340e-01</_>
    <_>
      9.88826811e-01 5.45098066e-01</_>
    <_>
      9.88826811e-01 4.90196079e-01</_>
    <_>
      9.88826811e-01 5.56862772e-01</_>
    <_>
      9.88826811e-01 5.56862772e-01</_>
    <_>
      9.83240247e-01 5.33333361e-01</_>
    <_>
      9.88826811e-01 5.29411793e-01</_>
    <_>
      9.88826811e-01 5.64705908e-01</_>
    <_>
      9.83240247e-01 5.84313750e-01</_>
    <_>
      9.88826811e-01 5.92156887e-01</_>
    <_>
      9.88826811e-01 5.84313750e-01</_>
    <_>
      9.88826811e-01 5.80392182e-01</_>
    <_>
      9.88826811e-01 5.64705908e-01</_>
    <_>
      9.88826811e-01 5.52941203e-01</_>
    <_>
      9.88826811e-01 5.68627477e-01</_>
    <_>
      9.72067058e-01 4.78431374e-01</_>
    <_>
      9.27374303e-01 5.84313750e-01</_>
    <_>
      9.88826811e-01 5.45098066e-01</_>
    <_>
      9.88826811e-01 5.41176498e-01</_>
    <_>
      9.88826811e-01 5.29411793e-01</_>
    <_>
      9.88826811e-01 5.37254930e-01</_>
    <_>
      9.88826811e-01 5.49019635e-01</_>
    <_>
      9.88826811e-01 5.72549045e-01</_>
    <_>
      9.88826811e-01 5.76470613e-01</_>
    <_>
      9.88826811e-01 5.68627477e-01</_>
    <_>
      9.88826811e-01 5.72549045e-01</_>
    <_>
      9.88826811e-01 5.64705908e-01</_>
    <_>
      9.88826811e-01 5.56862772e-01</_>
    <_>
      9.88826811e-01 5.49019635e-01</_>
    <_>
      9.88826811e-01 4.90196079e-01</_>
    <_>
      9.66480434e-01 5.25490224e-01</_>
    <_>
      9.05027926e-01 7.41176486e-01</_>
    <_>
      7.54189968e-01 8.00000012e-01</_>
    <_>
      9.88826811e-01 5.49019635e-01</_>
    <_>
      9.88826811e-01 5.33333361e-01</_>
    <_>
      9.88826811e-01 5.29411793e-01</_>
    <_>
      9.88826811e-01 5.37254930e-01</_>
    <_>
      9.88826811e-01 5.49019635e-01</_>
    <_>
      9.88826811e-01 5.84313750e-01</_>
    <_>
      9.88826811e-01 5.96078455e-01</_>
    <_>
      9.88826811e-01 5.88235319e-01</_>
    <_>
      9.88826811e-01 5.68627477e-01</_>
    <_>
      9.88826811e-01 5.56862772e-01</_>
    <_>
      9.77653623e-01 4.98039216e-01</_>
    <_>
      9.21787739e-01 5.21568656e-01</_>
    <_>
      8.10055852e-01 7.05882370e-01</_>
    <_>
      7.20670402e-01 7.68627465e-01</_>
    <_>
      6.87150836e-01 6.90196097e-01</_>
    <_>
      9.88826811e-01 5.45098066e-01</_>
    <_>
      9.88826811e-01 5.33333361e-01</_>
    <_>
      9.88826811e-01 5.37254930e-01</_>
    <_>
      9.88826811e-01 5.45098066e-01</_>
    <_>
      9.88826811e-01 5.76470613e-01</_>
    <_>
      9.88826811e-01 5.60784340e-01</_>
    <_>
      9.88826811e-01 5.49019635e-01</_>
    <_>
      9.88826811e-01 4.94117647e-01</_>
    <_>
      9.66480434e-01 5.60784340e-01</_>
    <_>
      8.71508360e-01 7.01960802e-01</_>
    <_>
      7.48603344e-01 6.58823550e-01</_>
    <_>
      7.09497213e-01 7.56862760e-01</_>
    <_>
      6.81564271e-01 5.01960814e-01</_>
    <_>
      6.48044705e-01 2.15686277e-01</_>
    <_>
      9.88826811e-01 5.33333361e-01</_>
    <_>
      9.88826811e-01 5.45098066e-01</_>
    <_>
      9.88826811e-01 5.60784340e-01</_>
    <_>
      9.88826811e-01 5.56862772e-01</_>
    <_>
      9.83240247e-01 5.09803951e-01</_>
    <_>
      9.21787739e-01 5.52941203e-01</_>
    <_>
      7.59776533e-01 8.27450991e-01</_>
    <_>
      7.15083778e-01 5.68627477e-01</_>
    <_>
      6.81564271e-01 8.27450991e-01</_>
    <_>
      6.64804459e-01 1.88235298e-01</_>
    <_>
      6.48044705e-01 1.25490203e-01</_>
    <_>
      6.36871517e-01 1.25490203e-01</_>
    <_>
      9.88826811e-01 5.72549045e-01</_>
    <_>
      9.88826811e-01 5.68627477e-01</_>
    <_>
      9.88826811e-01 5.60784340e-01</_>
    <_>
      9.83240247e-01 4.94117647e-01</_>
    <_>
      9.66480434e-01 5.72549045e-01</_>
    <_>
      8.82681549e-01 6.47058845e-01</_>
    <_>
      7.31843591e-01 6.47058845e-01</_>
    <_>
      7.03910589e-01 5.84313750e-01</_>
    <_>
      6.70391083e-01 6.07843161e-01</_>
    <_>
      5.75419009e-01 4.31372561e-02</_>
    <_>
      5.97765386e-01 1.17647059e-01</_>
    <_>
      6.53631270e-01 3.45098048e-01</_>
    <_>
      6.70391083e-01 2.43137255e-01</_>
    <_>
      9.88826811e-01 5.72549045e-01</_>
    <_>
      9.88826811e-01 5.68627477e-01</_>
    <_>
      9.88826811e-01 5.41176498e-01</_>
    <_>
      9.72067058e-01 4.70588237e-01</_>
    <_>
      8.99441361e-01 5.49019635e-01</_>
    <_>
      7.59776533e-01 5.52941203e-01</_>
    <_>
      7.20670402e-01 5.88235319e-01</_>
    <_>
      6.98324025e-01 6.54901981e-01</_>
    <_>
      6.59217894e-01 1.68627456e-01</_>
    <_>
      5.36312878e-01 3.13725509e-02</_>
    <_>
      6.14525139e-01 3.52941185e-01</_>
    <_>
      6.64804459e-01 6.47058845e-01</_>
    <_>
      6.87150836e-01 2.23529413e-01</_>
    <_>
      6.81564271e-01 1.52941182e-01</_>
    <_>
      9.83240247e-01 5.68627477e-01</_>
    <_>
      9.83240247e-01 5.76470613e-01</_>
    <_>
      9.88826811e-01 5.60784340e-01</_>
    <_>
      9.88826811e-01 5.37254930e-01</_>
    <_>
      9.88826811e-01 5.45098066e-01</_>
    <_>
      9.83240247e-01 4.54901963e-01</_>
    <_>
      9.55307245e-01 4.86274511e-01</_>
    <_>
      8.37988853e-01 8.35294127e-01</_>
    <_>
      7.37430155e-01 5.33333361e-01</_>
    <_>
      7.15083778e-01 6.78431392e-01</_>
    <_>
      7.20670402e-01 3.33333343e-01</_>
    <_>
      4.46927369e-01 2.74509806e-02</_>
    <_>
      5.69832385e-01 4.31372561e-02</_>
    <_>
      6.70391083e-01 3.56862754e-01</_>
    <_>
      6.75977647e-01 3.33333343e-01</_>
    <_>
      6.87150836e-01 3.76470596e-01</_>
    <_>
      6.81564271e-01 2.39215687e-01</_>
    <_>
      6.31284893e-01 1.96078435e-01</_>
    <_>
      9.77653623e-01 5.64705908e-01</_>
    <_>
      9.77653623e-01 5.64705908e-01</_>
    <_>
      9.83240247e-01 5.33333361e-01</_>
    <_>
      9.88826811e-01 5.37254930e-01</_>
    <_>
      9.88826811e-01 5.68627477e-01</_>
    <_>
      9.88826811e-01 5.52941203e-01</_>
    <_>
      9.88826811e-01 5.37254930e-01</_>
    <_>
      9.66480434e-01 4.15686280e-01</_>
    <_>
      8.49161983e-01 3.09803933e-01</_>
    <_>
      7.26256967e-01 4.27450985e-01</_>
    <_>
      7.15083778e-01 4.90196079e-01</_>
    <_>
      7.03910589e-01 7.01960802e-01</_>
    <_>
      6.70391083e-01 1.56862754e-02</_>
    <_>
      4.18994427e-01 2.74509806e-02</_>
    <_>
      6.42458081e-01 9.41176489e-02</_>
    <_>
      6.98324025e-01 2.62745112e-01</_>
    <_>
      6.98324025e-01 2.50980407e-01</_>
    <_>
      6.98324025e-01 3.80392164e-01</_>
    <_>
      6.92737401e-01 3.33333343e-01</_>
    <_>
      6.48044705e-01 2.19607845e-01</_>
    <_>
      6.14525139e-01 2.62745112e-01</_>
    <_>
      9.66480434e-01 4.58823532e-01</_>
    <_>
      9.72067058e-01 5.01960814e-01</_>
    <_>
      9.77653623e-01 5.37254930e-01</_>
    <_>
      9.77653623e-01 5.80392182e-01</_>
    <_>
      9.77653623e-01 4.98039216e-01</_>
    <_>
      9.77653623e-01 5.64705908e-01</_>
    <_>
      9.77653623e-01 4.78431374e-01</_>
    <_>
      9.77653623e-01 4.98039216e-01</_>
    <_>
      9.72067058e-01 5.17647088e-01</_>
    <_>
      9.77653623e-01 5.33333361e-01</_>
    <_>
      9.77653623e-01 5.52941203e-01</_>
    <_>
      9.77653623e-01 4.78431374e-01</_>
    <_>
      9.77653623e-01 5.33333361e-01</_>
    <_>
      9.77653623e-01 5.45098066e-01</_>
    <_>
      9.77653623e-01 4.86274511e-01</_>
    <_>
      9.77653623e-01 4.86274511e-01</_>
    <_>
      9.77653623e-01 5.01960814e-01</_>
    <_>
      9.72067058e-01 4.86274511e-01</_>
    <_>
      9.77653623e-01 4.86274511e-01</_>
    <_>
      9.77653623e-01 5.25490224e-01</_>
    <_>
      9.77653623e-01 5.29411793e-01</_>
    <_>
      9.77653623e-01 5.96078455e-01</_>
    <_>
      9.72067058e-01 4.78431374e-01</_>
    <_>
      9.72067058e-01 4.50980395e-01</_>
    <_>
      9.72067058e-01 4.66666669e-01</_>
    <_>
      9.77653623e-01 5.13725519e-01</_>
    <_>
      9.77653623e-01 5.33333361e-01</_>
    <_>
      9.77653623e-01 5.05882382e-01</_>
    <_>
      9.72067058e-01 4.98039216e-01</_>
    <_>
      9.72067058e-01 5.13725519e-01</_>
    <_>
      9.72067058e-01 4.86274511e-01</_>
    <_>
      9.77653623e-01 5.09803951e-01</_>
    <_>
      9.72067058e-01 5.13725519e-01</_>
    <_>
      9.72067058e-01 4.66666669e-01</_>
    <_>
      9.77653623e-01 5.01960814e-01</_>
    <_>
      9.77653623e-01 5.45098066e-01</_>
    <_>
      9.83240247e-01 5.96078455e-01</_>
    <_>
      9.77653623e-01 5.52941203e-01</_>
    <_>
      9.72067058e-01 5.01960814e-01</_>
    <_>
      9.72067058e-01 4.74509805e-01</_>
    <_>
      9.77653623e-01 4.86274511e-01</_>
    <_>
      9.83240247e-01 4.86274511e-01</_>
    <_>
      9.77653623e-01 5.21568656e-01</_>
    <_>
      9.77653623e-01 5.52941203e-01</_>
    <_>
      9.77653623e-01 5.13725519e-01</_>
    <_>
      9.72067058e-01 4.74509805e-01</_>
    <_>
      9.83240247e-01 4.62745100e-01</_>
    <_>
      9.83240247e-01 4.90196079e-01</_>
    <_>
      9.77653623e-01 5.25490224e-01</_>
    <_>
      9.77653623e-01 4.94117647e-01</_>
    <_>
      9.72067058e-01 4.86274511e-01</_>
    <_>
      9.77653623e-01 4.70588237e-01</_>
    <_>
      9.83240247e-01 4.94117647e-01</_>
    <_>
      9.77653623e-01 5.25490224e-01</_>
    <_>
      9.72067058e-01 4.74509805e-01</_>
    <_>
      9.72067058e-01 4.66666669e-01</_>
    <_>
      9.77653623e-01 4.66666669e-01</_>
    <_>
      9.83240247e-01 4.94117647e-01</_>
    <_>
      9.77653623e-01 5.05882382e-01</_>
    <_>
      9.88826811e-01 5.49019635e-01</_>
    <_>
      9.72067058e-01 5.01960814e-01</_>
    <_>
      9.72067058e-01 4.94117647e-01</_>
    <_>
      9.72067058e-01 5.05882382e-01</_>
    <_>
      9.72067058e-01 5.05882382e-01</_>
    <_>
      9.77653623e-01 4.98039216e-01</_>
    <_>
      9.83240247e-01 4.94117647e-01</_>
    <_>
      9.77653623e-01 5.01960814e-01</_>
    <_>
      9.72067058e-01 5.29411793e-01</_>
    <_>
      9.77653623e-01 5.45098066e-01</_>
    <_>
      9.88826811e-01 5.60784340e-01</_>
    <_>
      9.88826811e-01 5.37254930e-01</_>
    <_>
      9.77653623e-01 4.78431374e-01</_>
    <_>
      9.83240247e-01 5.01960814e-01</_>
    <_>
      9.77653623e-01 5.21568656e-01</_>
    <_>
      9.72067058e-01 5.21568656e-01</_>
    <_>
      9.72067058e-01 5.05882382e-01</_>
    <_>
      9.77653623e-01 5.17647088e-01</_>
    <_>
      9.77653623e-01 4.90196079e-01</_>
    <_>
      9.77653623e-01 5.01960814e-01</_>
    <_>
      9.72067058e-01 6.23529434e-01</_>
    <_>
      9.77653623e-01 5.80392182e-01</_>
    <_>
      9.88826811e-01 5.25490224e-01</_>
    <_>
      9.83240247e-01 5.56862772e-01</_>
    <_>
      9.83240247e-01 6.00000024e-01</_>
    <_>
      9.77653623e-01 4.82352942e-01</_>
    <_>
      9.83240247e-01 5.25490224e-01</_>
    <_>
      9.77653623e-01 5.37254930e-01</_>
    <_>
      9.83240247e-01 5.45098066e-01</_>
    <_>
      9.72067058e-01 5.17647088e-01</_>
    <_>
      9.72067058e-01 5.01960814e-01</_>
    <_>
      9.72067058e-01 5.05882382e-01</_>
    <_>
      9.77653623e-01 6.00000024e-01</_>
    <_>
      9.77653623e-01 5.64705908e-01</_>
    <_>
      9.77653623e-01 5.64705908e-01</_>
    <_>
      9.88826811e-01 5.49019635e-01</_>
    <_>
      9.83240247e-01 5.37254930e-01</_>
    <_>
      9.88826811e-01 5.25490224e-01</_>
    <_>
      9.72067058e-01 6.35294139e-01</_>
    <_>
      9.77653623e-01 5.01960814e-01</_>
    <_>
      9.77653623e-01 4.70588237e-01</_>
    <_>
      9.83240247e-01 5.01960814e-01</_>
    <_>
      9.77653623e-01 4.98039216e-01</_>
    <_>
      9.77653623e-01 4.31372553e-01</_>
    <_>
      9.72067058e-01 5.05882382e-01</_>
    <_>
      9.77653623e-01 5.60784340e-01</_>
    <_>
      9.77653623e-01 5.25490224e-01</_>
    <_>
      9.77653623e-01 5.13725519e-01</_>
    <_>
      9.77653623e-01 5.84313750e-01</_>
    <_>
      9.77653623e-01 5.68627477e-01</_>
    <_>
      9.83240247e-01 5.21568656e-01</_>
    <_>
      9.77653623e-01 6.15686297e-01</_>
    <_>
      9.77653623e-01 5.01960814e-01</_>
    <_>
      9.83240247e-01 4.66666669e-01</_>
    <_>
      9.83240247e-01 4.94117647e-01</_>
    <_>
      9.77653623e-01 5.13725519e-01</_>
    <_>
      9.72067058e-01 4.74509805e-01</_>
    <_>
      9.72067058e-01 5.05882382e-01</_>
    <_>
      9.72067058e-01 4.94117647e-01</_>
    <_>
      9.77653623e-01 4.70588237e-01</_>
    <_>
      9.77653623e-01 5.09803951e-01</_>
    <_>
      9.77653623e-01 5.33333361e-01</_>
    <_>
      9.77653623e-01 5.68627477e-01</_>
    <_>
      9.77653623e-01 4.90196079e-01</_>
    <_>
      9.83240247e-01 4.74509805e-01</_>
    <_>
      9.83240247e-01 5.37254930e-01</_>
    <_>
      9.72067058e-01 4.50980395e-01</_>
    <_>
      9.72067058e-01 4.70588237e-01</_>
    <_>
      9.77653623e-01 5.52941203e-01</_>
    <_>
      9.72067058e-01 4.70588237e-01</_>
    <_>
      9.72067058e-01 4.70588237e-01</_>
    <_>
      9.72067058e-01 5.21568656e-01</_>
    <_>
      9.72067058e-01 4.62745100e-01</_>
    <_>
      9.72067058e-01 5.25490224e-01</_>
    <_>
      9.72067058e-01 5.25490224e-01</_>
    <_>
      9.77653623e-01 4.66666669e-01</_>
    <_>
      9.72067058e-01 5.25490224e-01</_>
    <_>
      9.72067058e-01 4.74509805e-01</_>
    <_>
      9.72067058e-01 4.50980395e-01</_>
    <_>
      9.66480434e-01 4.43137258e-01</_>
    <_>
      9.66480434e-01 4.47058827e-01</_>
    <_>
      9.72067058e-01 5.13725519e-01</_>
    <_>
      9.72067058e-01 5.17647088e-01</_>
    <_>
      9.77653623e-01 5.68627477e-01</_>
    <_>
      9.88826811e-01 4.86274511e-01</_>
    <_>
      9.83240247e-01 5.09803951e-01</_>
    <_>
      9.72067058e-01 5.05882382e-01</_>
    <_>
      9.72067058e-01 4.70588237e-01</_>
    <_>
      9.77653623e-01 4.50980395e-01</_>
    <_>
      9.77653623e-01 4.35294122e-01</_>
    <_>
      9.66480434e-01 4.50980395e-01</_>
    <_>
      9.66480434e-01 4.58823532e-01</_>
    <_>
      9.77653623e-01 5.56862772e-01</_>
    <_>
      9.83240247e-01 5.21568656e-01</_>
    <_>
      9.72067058e-01 4.86274511e-01</_>
    <_>
      9.83240247e-01 4.39215690e-01</_>
    <_>
      9.83240247e-01 4.07843143e-01</_>
    <_>
      9.77653623e-01 4.27450985e-01</_>
    <_>
      9.66480434e-01 4.58823532e-01</_>
    <_>
      9.83240247e-01 5.05882382e-01</_>
    <_>
      9.83240247e-01 5.01960814e-01</_>
    <_>
      9.72067058e-01 5.17647088e-01</_>
    <_>
      9.77653623e-01 5.49019635e-01</_>
    <_>
      9.77653623e-01 5.49019635e-01</_>
    <_>
      9.77653623e-01 4.23529416e-01</_>
    <_>
      9.83240247e-01 4.03921574e-01</_>
    <_>
      9.88826811e-01 3.88235301e-01</_>
    <_>
      9.77653623e-01 4.66666669e-01</_>
    <_>
      9.66480434e-01 4.58823532e-01</_>
    <_>
      9.77653623e-01 5.05882382e-01</_>
    <_>
      9.77653623e-01 4.43137258e-01</_>
    <_>
      9.72067058e-01 4.70588237e-01</_>
    <_>
      9.72067058e-01 4.90196079e-01</_>
    <_>
      9.83240247e-01 5.29411793e-01</_>
    <_>
      9.83240247e-01 5.41176498e-01</_>
    <_>
      9.77653623e-01 5.68627477e-01</_>
    <_>
      9.72067058e-01 5.17647088e-01</_>
    <_>
      9.77653623e-01 5.72549045e-01</_>
    <_>
      9.77653623e-01 4.82352942e-01</_>
    <_>
      1.67597774e-02 6.11764729e-01</_>
    <_>
      3.63128483e-01 9.17647064e-01</_>
    <_>
      4.02234644e-01 7.92156875e-01</_>
    <_>
      5.97765386e-01 1.13725491e-01</_>
    <_>
      6.03351951e-01 1.21568628e-01</_>
    <_>
      5.92178762e-01 1.13725491e-01</_>
    <_>
      5.92178762e-01 1.25490203e-01</_>
    <_>
      6.03351951e-01 1.17647059e-01</_>
    <_>
      6.08938575e-01 1.09803922e-01</_>
    <_>
      6.08938575e-01 1.29411772e-01</_>
    <_>
      5.86592197e-01 1.17647059e-01</_>
    <_>
      5.92178762e-01 1.13725491e-01</_>
    <_>
      5.92178762e-01 1.13725491e-01</_>
    <_>
      9.66480434e-01 8.07843149e-01</_>
    <_>
      9.72067058e-01 7.01960802e-01</_>
    <_>
      9.72067058e-01 7.29411781e-01</_>
    <_>
      9.72067058e-01 6.82352960e-01</_>
    <_>
      9.72067058e-01 7.49019623e-01</_>
    <_>
      3.40782136e-01 8.43137264e-01</_>
    <_>
      6.36871517e-01 3.13725509e-02</_>
    <_>
      6.36871517e-01 3.13725509e-02</_>
    <_>
      6.36871517e-01 3.13725509e-02</_>
    <_>
      5.36312878e-01 7.68627465e-01</_>
    <_>
      5.36312878e-01 7.76470602e-01</_>
    <_>
      5.36312878e-01 7.76470602e-01</_>
    <_>
      5.36312878e-01 7.60784328e-01</_>
    <_>
      6.87150836e-01 4.11764711e-01</_>
    <_>
      8.88268173e-01 4.23529416e-01</_>
    <_>
      7.70949721e-01 6.19607866e-01</_>
    <_>
      9.60893869e-01 3.52941185e-01</_>
    <_>
      9.38547492e-01 3.60784322e-01</_>
    <_>
      9.72067058e-01 3.88235301e-01</_>
    <_>
      2.23463681e-02 5.52941203e-01</_>
    <_>
      4.46927369e-01 1.96078438e-02</_>
    <_>
      4.46927369e-01 1.96078438e-02</_>
    <_>
      5.02793312e-01 1.56862754e-02</_>
    <_>
      2.96089381e-01 2.74509806e-02</_>
    <_>
      3.35195541e-01 1.56862754e-02</_>
    <_>
      5.02793312e-01 1.17647061e-02</_>
    <_>
      9.72067058e-01 7.01960802e-01</_>
    <_>
      9.72067058e-01 6.82352960e-01</_>
    <_>
      9.72067058e-01 6.54901981e-01</_>
    <_>
      9.72067058e-01 6.66666687e-01</_>
    <_>
      9.72067058e-01 6.70588255e-01</_>
    <_>
      9.72067058e-01 6.35294139e-01</_>
    <_>
      9.72067058e-01 6.31372571e-01</_>
    <_>
      9.72067058e-01 6.39215708e-01</_>
    <_>
      9.72067058e-01 6.82352960e-01</_>
    <_>
      9.72067058e-01 7.01960802e-01</_>
    <_>
      9.72067058e-01 6.74509823e-01</_>
    <_>
      9.72067058e-01 6.94117665e-01</_>
    <_>
      5.69832385e-01 4.98039216e-01</_>
    <_>
      6.08938575e-01 4.03921574e-01</_>
    <_>
      5.64245820e-01 4.39215690e-01</_>
    <_>
      5.75419009e-01 3.92156869e-01</_>
    <_>
      6.14525139e-01 3.33333343e-01</_>
    <_>
      6.70391083e-01 7.13725507e-01</_>
    <_>
      6.81564271e-01 5.52941203e-01</_>
    <_>
      6.81564271e-01 5.01960814e-01</_>
    <_>
      5.69832385e-01 4.11764711e-01</_>
    <_>
      5.97765386e-01 3.76470596e-01</_>
    <_>
      6.70391083e-01 3.41176480e-01</_>
    <_>
      6.92737401e-01 3.92156869e-01</_>
    <_>
      5.86592197e-01 4.70588237e-01</_>
    <_>
      6.31284893e-01 3.64705890e-01</_>
    <_>
      6.70391083e-01 3.25490206e-01</_>
    <_>
      5.86592197e-01 7.84313753e-02</_>
    <_>
      5.69832385e-01 1.29411772e-01</_>
    <_>
      6.03351951e-01 1.68627456e-01</_>
    <_>
      6.98324025e-01 2.54901975e-01</_>
    <_>
      7.03910589e-01 2.31372550e-01</_>
    <_>
      7.03910589e-01 2.70588249e-01</_>
    <_>
      5.81005573e-01 1.72549024e-01</_>
    <_>
      5.64245820e-01 1.68627456e-01</_>
    <_>
      5.97765386e-01 2.43137255e-01</_>
    <_>
      6.75977647e-01 6.35294139e-01</_>
    <_>
      6.87150836e-01 2.19607845e-01</_>
    <_>
      6.87150836e-01 2.19607845e-01</_>
    <_>
      6.87150836e-01 2.82352954e-01</_>
    <_>
      5.58659196e-01 1.29411772e-01</_>
    <_>
      5.64245820e-01 1.72549024e-01</_>
    <_>
      6.14525139e-01 3.17647070e-01</_>
    <_>
      6.81564271e-01 4.82352942e-01</_>
    <_>
      6.98324025e-01 4.58823532e-01</_>
    <_>
      6.70391083e-01 7.33333349e-01</_>
    <_>
      7.03910589e-01 2.39215687e-01</_>
    <_>
      7.15083778e-01 2.66666681e-01</_>
    <_>
      7.03910589e-01 3.68627459e-01</_>
    <_>
      5.53072631e-01 1.17647059e-01</_>
    <_>
      5.64245820e-01 1.64705887e-01</_>
    <_>
      6.92737401e-01 5.13725519e-01</_>
    <_>
      6.81564271e-01 3.60784322e-01</_>
    <_>
      6.70391083e-01 7.01960802e-01</_>
    <_>
      7.03910589e-01 2.39215687e-01</_>
    <_>
      7.03910589e-01 3.64705890e-01</_>
    <_>
      6.81564271e-01 6.43137276e-01</_>
    <_>
      5.81005573e-01 1.21568628e-01</_>
    <_>
      5.86592197e-01 1.60784319e-01</_>
    <_>
      6.70391083e-01 6.94117665e-01</_>
    <_>
      6.81564271e-01 7.01960802e-01</_>
    <_>
      6.70391083e-01 7.56862760e-01</_>
    <_>
      6.81564271e-01 5.80392182e-01</_>
    <_>
      6.98324025e-01 2.78431386e-01</_>
    <_>
      6.98324025e-01 4.07843143e-01</_>
    <_>
      6.81564271e-01 9.05882359e-01</_>
    <_>
      6.36871517e-01 1.45098045e-01</_>
    <_>
      6.20111704e-01 1.33333340e-01</_>
    <_>
      6.81564271e-01 7.01960802e-01</_>
    <_>
      6.81564271e-01 5.33333361e-01</_>
    <_>
      6.81564271e-01 1.84313729e-01</_>
    <_>
      6.92737401e-01 2.94117659e-01</_>
    <_>
      6.98324025e-01 1.45098045e-01</_>
    <_>
      6.92737401e-01 1.84313729e-01</_>
    <_>
      6.92737401e-01 4.39215690e-01</_>
    <_>
      6.53631270e-01 1.17647059e-01</_>
    <_>
      6.81564271e-01 6.66666687e-01</_>
    <_>
      6.70391083e-01 8.62745121e-02</_>
    <_>
      6.70391083e-01 3.52941193e-02</_>
    <_>
      7.15083778e-01 2.23529413e-01</_>
    <_>
      7.03910589e-01 3.25490206e-01</_>
    <_>
      2.12290496e-01 5.49019635e-01</_>
    <_>
      9.88826811e-01 5.05882382e-01</_>
    <_>
      9.88826811e-01 5.09803951e-01</_>
    <_>
      9.88826811e-01 5.21568656e-01</_>
    <_>
      9.88826811e-01 5.01960814e-01</_>
    <_>
      9.88826811e-01 5.05882382e-01</_>
    <_>
      9.88826811e-01 5.21568656e-01</_>
    <_>
      9.88826811e-01 4.90196079e-01</_>
    <_>
      9.88826811e-01 5.13725519e-01</_>
    <_>
      9.88826811e-01 5.09803951e-01</_>
    <_>
      9.88826811e-01 5.13725519e-01</_>
    <_>
      9.88826811e-01 5.33333361e-01</_>
    <_>
      9.88826811e-01 5.01960814e-01</_>
    <_>
      9.88826811e-01 5.29411793e-01</_>
    <_>
      9.88826811e-01 4.90196079e-01</_>
    <_>
      9.88826811e-01 5.05882382e-01</_>
    <_>
      9.72067058e-01 6.23529434e-01</_>
    <_>
      9.77653623e-01 6.03921592e-01</_>
    <_>
      9.72067058e-01 6.23529434e-01</_>
    <_>
      9.72067058e-01 6.15686297e-01</_>
    <_>
      9.72067058e-01 6.35294139e-01</_>
    <_>
      9.72067058e-01 6.27451003e-01</_>
    <_>
      9.72067058e-01 6.50980413e-01</_>
    <_>
      9.72067058e-01 6.35294139e-01</_>
    <_>
      9.72067058e-01 6.39215708e-01</_>
    <_>
      9.72067058e-01 6.43137276e-01</_>
    <_>
      9.72067058e-01 6.23529434e-01</_>
    <_>
      9.72067058e-01 6.39215708e-01</_>
    <_>
      9.72067058e-01 6.15686297e-01</_>
    <_>
      9.72067058e-01 6.27451003e-01</_>
    <_>
      9.72067058e-01 6.15686297e-01</_>
    <_>
      9.72067058e-01 6.31372571e-01</_>
    <_>
      9.72067058e-01 6.15686297e-01</_>
    <_>
      9.72067058e-01 6.35294139e-01</_>
    <_>
      9.72067058e-01 6.31372571e-01</_>
    <_>
      9.77653623e-01 6.23529434e-01</_>
    <_>
      9.77653623e-01 6.35294139e-01</_>
    <_>
      9.72067058e-01 6.58823550e-01</_>
    <_>
      9.77653623e-01 5.68627477e-01</_>
    <_>
      9.77653623e-01 6.19607866e-01</_>
    <_>
      9.77653623e-01 6.35294139e-01</_>
    <_>
      9.72067058e-01 6.43137276e-01</_>
    <_>
      9.77653623e-01 5.88235319e-01</_>
    <_>
      9.77653623e-01 5.88235319e-01</_>
    <_>
      9.77653623e-01 5.96078455e-01</_>
    <_>
      9.77653623e-01 6.00000024e-01</_>
    <_>
      9.77653623e-01 6.00000024e-01</_>
    <_>
      9.72067058e-01 6.35294139e-01</_>
    <_>
      9.72067058e-01 6.31372571e-01</_>
    <_>
      9.72067058e-01 6.15686297e-01</_>
    <_>
      9.77653623e-01 5.96078455e-01</_>
    <_>
      9.77653623e-01 6.00000024e-01</_>
    <_>
      9.77653623e-01 5.92156887e-01</_>
    <_>
      9.77653623e-01 6.00000024e-01</_>
    <_>
      9.72067058e-01 6.15686297e-01</_>
    <_>
      9.83240247e-01 6.58823550e-01</_>
    <_>
      9.77653623e-01 6.82352960e-01</_>
    <_>
      9.72067058e-01 6.19607866e-01</_>
    <_>
      9.77653623e-01 6.11764729e-01</_>
    <_>
      9.72067058e-01 6.15686297e-01</_>
    <_>
      9.72067058e-01 6.35294139e-01</_>
    <_>
      9.77653623e-01 5.88235319e-01</_>
    <_>
      9.77653623e-01 5.96078455e-01</_>
    <_>
      9.77653623e-01 6.27451003e-01</_>
    <_>
      9.77653623e-01 5.80392182e-01</_>
    <_>
      9.94413435e-01 6.58823550e-01</_>
    <_>
      9.83240247e-01 6.50980413e-01</_>
    <_>
      9.77653623e-01 6.31372571e-01</_>
    <_>
      9.72067058e-01 6.31372571e-01</_>
    <_>
      9.77653623e-01 6.15686297e-01</_>
    <_>
      9.77653623e-01 6.39215708e-01</_>
    <_>
      9.72067058e-01 6.19607866e-01</_>
    <_>
      9.77653623e-01 5.84313750e-01</_>
    <_>
      9.77653623e-01 5.76470613e-01</_>
    <_>
      9.77653623e-01 6.23529434e-01</_>
    <_>
      9.72067058e-01 6.62745118e-01</_>
    <_>
      9.77653623e-01 5.84313750e-01</_>
    <_>
      9.94413435e-01 6.00000024e-01</_>
    <_>
      9.88826811e-01 6.00000024e-01</_>
    <_>
      9.77653623e-01 5.56862772e-01</_>
    <_>
      9.77653623e-01 6.11764729e-01</_>
    <_>
      9.72067058e-01 6.23529434e-01</_>
    <_>
      9.72067058e-01 6.27451003e-01</_>
    <_>
      9.77653623e-01 5.84313750e-01</_>
    <_>
      9.77653623e-01 5.72549045e-01</_>
    <_>
      9.77653623e-01 6.03921592e-01</_>
    <_>
      9.77653623e-01 6.03921592e-01</_>
    <_>
      9.94413435e-01 6.00000024e-01</_>
    <_>
      9.94413435e-01 5.68627477e-01</_>
    <_>
      9.83240247e-01 5.76470613e-01</_>
    <_>
      9.72067058e-01 6.39215708e-01</_>
    <_>
      9.77653623e-01 5.88235319e-01</_>
    <_>
      9.77653623e-01 5.64705908e-01</_>
    <_>
      9.77653623e-01 5.76470613e-01</_>
    <_>
      9.94413435e-01 6.00000024e-01</_>
    <_>
      9.94413435e-01 6.00000024e-01</_>
    <_>
      9.83240247e-01 6.31372571e-01</_>
    <_>
      9.72067058e-01 6.15686297e-01</_>
    <_>
      9.77653623e-01 5.76470613e-01</_>
    <_>
      9.77653623e-01 5.84313750e-01</_>
    <_>
      9.88826811e-01 5.80392182e-01</_>
    <_>
      9.88826811e-01 5.92156887e-01</_>
    <_>
      9.83240247e-01 6.00000024e-01</_>
    <_>
      9.72067058e-01 6.35294139e-01</_>
    <_>
      9.77653623e-01 6.03921592e-01</_>
    <_>
      9.77653623e-01 5.52941203e-01</_>
    <_>
      9.77653623e-01 5.80392182e-01</_>
    <_>
      9.72067058e-01 6.19607866e-01</_>
    <_>
      9.72067058e-01 6.15686297e-01</_>
    <_>
      9.77653623e-01 5.88235319e-01</_>
    <_>
      9.88826811e-01 5.88235319e-01</_>
    <_>
      9.88826811e-01 6.00000024e-01</_>
    <_>
      9.83240247e-01 5.72549045e-01</_>
    <_>
      9.77653623e-01 5.68627477e-01</_>
    <_>
      9.77653623e-01 5.68627477e-01</_>
    <_>
      9.77653623e-01 6.03921592e-01</_>
    <_>
      9.83240247e-01 6.07843161e-01</_>
    <_>
      9.77653623e-01 5.96078455e-01</_>
    <_>
      9.77653623e-01 5.96078455e-01</_>
    <_>
      9.77653623e-01 5.96078455e-01</_>
    <_>
      9.77653623e-01 5.68627477e-01</_>
    <_>
      9.77653623e-01 5.72549045e-01</_>
    <_>
      9.83240247e-01 5.80392182e-01</_>
    <_>
      9.77653623e-01 5.80392182e-01</_>
    <_>
      9.77653623e-01 5.64705908e-01</_>
    <_>
      9.83240247e-01 5.60784340e-01</_>
    <_>
      9.77653623e-01 5.92156887e-01</_>
    <_>
      9.77653623e-01 5.49019635e-01</_>
    <_>
      9.77653623e-01 6.11764729e-01</_>
    <_>
      9.72067058e-01 6.19607866e-01</_>
    <_>
      9.77653623e-01 6.19607866e-01</_>
    <_>
      9.77653623e-01 5.80392182e-01</_>
    <_>
      9.77653623e-01 5.84313750e-01</_>
    <_>
      9.83240247e-01 6.11764729e-01</_>
    <_>
      9.83240247e-01 5.84313750e-01</_>
    <_>
      9.77653623e-01 5.80392182e-01</_>
    <_>
      9.77653623e-01 5.84313750e-01</_>
    <_>
      9.77653623e-01 5.80392182e-01</_>
    <_>
      9.83240247e-01 5.56862772e-01</_>
    <_>
      9.83240247e-01 5.56862772e-01</_>
    <_>
      9.77653623e-01 5.68627477e-01</_>
    <_>
      9.83240247e-01 5.60784340e-01</_>
    <_>
      9.77653623e-01 5.25490224e-01</_>
    <_>
      9.83240247e-01 5.33333361e-01</_>
    <_>
      9.72067058e-01 5.05882382e-01</_>
    <_>
      9.77653623e-01 6.23529434e-01</_>
    <_>
      9.77653623e-01 6.43137276e-01</_>
    <_>
      9.83240247e-01 6.98039234e-01</_>
    <_>
      9.77653623e-01 6.27451003e-01</_>
    <_>
      9.83240247e-01 5.72549045e-01</_>
    <_>
      9.83240247e-01 6.03921592e-01</_>
    <_>
      9.83240247e-01 5.80392182e-01</_>
    <_>
      9.77653623e-01 5.64705908e-01</_>
    <_>
      9.77653623e-01 5.76470613e-01</_>
    <_>
      9.77653623e-01 5.88235319e-01</_>
    <_>
      9.77653623e-01 5.52941203e-01</_>
    <_>
      9.77653623e-01 5.64705908e-01</_>
    <_>
      9.77653623e-01 5.45098066e-01</_>
    <_>
      9.77653623e-01 5.56862772e-01</_>
    <_>
      9.77653623e-01 5.52941203e-01</_>
    <_>
      9.77653623e-01 5.56862772e-01</_>
    <_>
      9.83240247e-01 5.37254930e-01</_>
    <_>
      9.77653623e-01 6.03921592e-01</_>
    <_>
      9.83240247e-01 5.92156887e-01</_>
    <_>
      9.83240247e-01 5.92156887e-01</_>
    <_>
      9.88826811e-01 5.72549045e-01</_>
    <_>
      9.83240247e-01 5.76470613e-01</_>
    <_>
      9.83240247e-01 5.92156887e-01</_>
    <_>
      9.77653623e-01 5.72549045e-01</_>
    <_>
      9.77653623e-01 5.72549045e-01</_>
    <_>
      9.77653623e-01 5.68627477e-01</_>
    <_>
      9.83240247e-01 5.49019635e-01</_>
    <_>
      9.83240247e-01 5.68627477e-01</_>
    <_>
      9.83240247e-01 5.52941203e-01</_>
    <_>
      9.77653623e-01 5.52941203e-01</_>
    <_>
      9.88826811e-01 5.33333361e-01</_>
    <_>
      9.83240247e-01 5.92156887e-01</_>
    <_>
      9.72067058e-01 5.25490224e-01</_>
    <_>
      9.83240247e-01 5.68627477e-01</_>
    <_>
      9.88826811e-01 5.49019635e-01</_>
    <_>
      9.83240247e-01 5.56862772e-01</_>
    <_>
      9.83240247e-01 5.64705908e-01</_>
    <_>
      9.77653623e-01 5.21568656e-01</_>
    <_>
      9.83240247e-01 5.49019635e-01</_>
    <_>
      9.77653623e-01 5.60784340e-01</_>
    <_>
      9.88826811e-01 5.33333361e-01</_>
    <_>
      9.83240247e-01 6.03921592e-01</_>
    <_>
      9.83240247e-01 6.54901981e-01</_>
    <_>
      9.88826811e-01 5.92156887e-01</_>
    <_>
      9.88826811e-01 5.56862772e-01</_>
    <_>
      9.77653623e-01 5.21568656e-01</_>
    <_>
      9.83240247e-01 5.68627477e-01</_>
    <_>
      9.77653623e-01 6.00000024e-01</_>
    <_>
      9.83240247e-01 5.68627477e-01</_>
    <_>
      9.77653623e-01 5.49019635e-01</_>
    <_>
      9.83240247e-01 5.72549045e-01</_>
    <_>
      9.83240247e-01 6.47058845e-01</_>
    <_>
      9.88826811e-01 5.80392182e-01</_>
    <_>
      9.77653623e-01 5.68627477e-01</_>
    <_>
      9.77653623e-01 5.76470613e-01</_>
    <_>
      9.77653623e-01 5.72549045e-01</_>
    <_>
      9.77653623e-01 5.60784340e-01</_>
    <_>
      9.77653623e-01 5.60784340e-01</_>
    <_>
      9.83240247e-01 5.49019635e-01</_>
    <_>
      9.83240247e-01 5.37254930e-01</_>
    <_>
      9.83240247e-01 5.25490224e-01</_>
    <_>
      9.72067058e-01 5.25490224e-01</_>
    <_>
      9.77653623e-01 4.90196079e-01</_>
    <_>
      9.77653623e-01 5.05882382e-01</_>
    <_>
      9.77653623e-01 5.33333361e-01</_>
    <_>
      9.83240247e-01 5.41176498e-01</_>
    <_>
      9.94413435e-01 5.33333361e-01</_>
    <_>
      9.94413435e-01 5.21568656e-01</_>
    <_>
      9.77653623e-01 5.68627477e-01</_>
    <_>
      9.66480434e-01 8.31372559e-01</_>
    <_>
      9.66480434e-01 8.23529422e-01</_>
    <_>
      9.72067058e-01 7.25490212e-01</_>
    <_>
      9.72067058e-01 8.58823538e-01</_>
    <_>
      9.72067058e-01 7.41176486e-01</_>
    <_>
      9.72067058e-01 7.84313738e-01</_>
    <_>
      9.66480434e-01 7.96078444e-01</_>
    <_>
      9.72067058e-01 7.25490212e-01</_>
    <_>
      9.72067058e-01 5.05882382e-01</_>
    <_>
      9.83240247e-01 5.33333361e-01</_>
    <_>
      9.77653623e-01 5.25490224e-01</_>
    <_>
      9.83240247e-01 5.21568656e-01</_>
    <_>
      9.83240247e-01 5.05882382e-01</_>
    <_>
      9.83240247e-01 5.01960814e-01</_>
    <_>
      9.83240247e-01 5.09803951e-01</_>
    <_>
      9.83240247e-01 5.09803951e-01</_>
    <_>
      9.88826811e-01 5.09803951e-01</_>
    <_>
      9.88826811e-01 4.90196079e-01</_>
    <_>
      9.83240247e-01 5.41176498e-01</_>
    <_>
      9.88826811e-01 4.86274511e-01</_>
    <_>
      9.83240247e-01 5.37254930e-01</_>
    <_>
      9.88826811e-01 5.76470613e-01</_>
    <_>
      9.88826811e-01 4.94117647e-01</_>
    <_>
      9.88826811e-01 5.09803951e-01</_>
    <_>
      9.88826811e-01 5.17647088e-01</_>
    <_>
      9.88826811e-01 5.05882382e-01</_>
    <_>
      9.83240247e-01 5.17647088e-01</_>
    <_>
      9.88826811e-01 5.25490224e-01</_>
    <_>
      9.88826811e-01 5.21568656e-01</_>
    <_>
      9.88826811e-01 5.05882382e-01</_>
    <_>
      9.88826811e-01 5.21568656e-01</_>
    <_>
      9.88826811e-01 5.76470613e-01</_>
    <_>
      9.88826811e-01 4.90196079e-01</_>
    <_>
      9.88826811e-01 5.37254930e-01</_>
    <_>
      9.88826811e-01 5.56862772e-01</_>
    <_>
      9.88826811e-01 5.41176498e-01</_>
    <_>
      9.88826811e-01 5.09803951e-01</_>
    <_>
      9.88826811e-01 5.05882382e-01</_>
    <_>
      9.88826811e-01 5.09803951e-01</_>
    <_>
      9.88826811e-01 5.56862772e-01</_>
    <_>
      9.88826811e-01 5.37254930e-01</_>
    <_>
      9.88826811e-01 5.33333361e-01</_>
    <_>
      9.88826811e-01 4.90196079e-01</_>
    <_>
      9.88826811e-01 5.21568656e-01</_>
    <_>
      9.88826811e-01 5.64705908e-01</_>
    <_>
      9.83240247e-01 5.17647088e-01</_>
    <_>
      9.88826811e-01 5.29411793e-01</_>
    <_>
      9.88826811e-01 4.94117647e-01</_>
    <_>
      9.88826811e-01 5.49019635e-01</_>
    <_>
      9.88826811e-01 5.68627477e-01</_>
    <_>
      9.83240247e-01 4.66666669e-01</_>
    <_>
      9.83240247e-01 4.94117647e-01</_>
    <_>
      9.83240247e-01 5.29411793e-01</_>
    <_>
      9.88826811e-01 5.17647088e-01</_>
    <_>
      9.88826811e-01 4.90196079e-01</_>
    <_>
      9.88826811e-01 5.68627477e-01</_>
    <_>
      9.88826811e-01 5.33333361e-01</_>
    <_>
      9.83240247e-01 5.37254930e-01</_>
    <_>
      9.83240247e-01 4.66666669e-01</_>
    <_>
      9.88826811e-01 5.09803951e-01</_>
    <_>
      9.88826811e-01 5.33333361e-01</_>
    <_>
      9.88826811e-01 5.41176498e-01</_>
    <_>
      9.88826811e-01 5.33333361e-01</_>
    <_>
      9.88826811e-01 5.05882382e-01</_>
    <_>
      9.88826811e-01 5.37254930e-01</_>
    <_>
      9.83240247e-01 5.01960814e-01</_>
    <_>
      9.83240247e-01 5.33333361e-01</_>
    <_>
      9.88826811e-01 5.41176498e-01</_>
    <_>
      9.88826811e-01 5.21568656e-01</_>
    <_>
      9.88826811e-01 5.29411793e-01</_>
    <_>
      9.83240247e-01 6.19607866e-01</_>
    <_>
      9.88826811e-01 5.17647088e-01</_>
    <_>
      9.88826811e-01 4.86274511e-01</_>
    <_>
      9.83240247e-01 5.05882382e-01</_>
    <_>
      9.88826811e-01 5.09803951e-01</_>
    <_>
      9.88826811e-01 4.94117647e-01</_>
    <_>
      9.88826811e-01 5.37254930e-01</_>
    <_>
      9.88826811e-01 5.76470613e-01</_>
    <_>
      9.88826811e-01 5.52941203e-01</_>
    <_>
      9.83240247e-01 5.56862772e-01</_>
    <_>
      9.83240247e-01 5.09803951e-01</_>
    <_>
      9.88826811e-01 5.92156887e-01</_>
    <_>
      9.88826811e-01 5.96078455e-01</_>
    <_>
      9.88826811e-01 5.72549045e-01</_>
    <_>
      9.88826811e-01 5.60784340e-01</_>
    <_>
      9.83240247e-01 5.68627477e-01</_>
    <_>
      9.83240247e-01 5.33333361e-01</_>
    <_>
      9.88826811e-01 5.56862772e-01</_>
    <_>
      6.14525139e-01 1.09803922e-01</_>
    <_>
      6.14525139e-01 1.13725491e-01</_>
    <_>
      9.88826811e-01 6.35294139e-01</_>
    <_>
      9.88826811e-01 6.27451003e-01</_>
    <_>
      9.88826811e-01 6.31372571e-01</_>
    <_>
      9.88826811e-01 6.47058845e-01</_>
    <_>
      9.88826811e-01 6.54901981e-01</_>
    <_>
      9.88826811e-01 6.43137276e-01</_>
    <_>
      9.88826811e-01 6.47058845e-01</_>
    <_>
      9.88826811e-01 6.54901981e-01</_>
    <_>
      9.88826811e-01 6.47058845e-01</_>
    <_>
      9.88826811e-01 6.39215708e-01</_>
    <_>
      9.88826811e-01 6.47058845e-01</_>
    <_>
      9.88826811e-01 6.58823550e-01</_>
    <_>
      9.88826811e-01 6.58823550e-01</_>
    <_>
      9.88826811e-01 6.47058845e-01</_>
    <_>
      9.88826811e-01 6.35294139e-01</_>
    <_>
      9.83240247e-01 6.62745118e-01</_>
    <_>
      9.83240247e-01 6.54901981e-01</_>
    <_>
      9.88826811e-01 6.35294139e-01</_>
    <_>
      9.88826811e-01 6.35294139e-01</_>
    <_>
      9.83240247e-01 6.54901981e-01</_>
    <_>
      9.83240247e-01 6.66666687e-01</_>
    <_>
      9.83240247e-01 6.70588255e-01</_>
    <_>
      9.88826811e-01 6.39215708e-01</_>
    <_>
      9.88826811e-01 6.74509823e-01</_>
    <_>
      9.83240247e-01 6.62745118e-01</_>
    <_>
      9.83240247e-01 6.62745118e-01</_>
    <_>
      9.88826811e-01 6.66666687e-01</_>
    <_>
      9.88826811e-01 6.39215708e-01</_>
    <_>
      9.88826811e-01 6.47058845e-01</_>
    <_>
      9.88826811e-01 6.54901981e-01</_>
    <_>
      9.88826811e-01 6.43137276e-01</_>
    <_>
      9.88826811e-01 6.70588255e-01</_>
    <_>
      9.88826811e-01 6.39215708e-01</_>
    <_>
      9.88826811e-01 6.23529434e-01</_>
    <_>
      9.88826811e-01 6.27451003e-01</_>
    <_>
      9.88826811e-01 6.19607866e-01</_>
    <_>
      9.83240247e-01 6.31372571e-01</_>
    <_>
      9.88826811e-01 6.31372571e-01</_>
    <_>
      9.88826811e-01 6.31372571e-01</_>
    <_>
      9.88826811e-01 6.15686297e-01</_>
    <_>
      9.88826811e-01 6.11764729e-01</_>
    <_>
      9.88826811e-01 5.88235319e-01</_>
    <_>
      9.83240247e-01 6.27451003e-01</_>
    <_>
      9.83240247e-01 6.00000024e-01</_>
    <_>
      9.83240247e-01 6.15686297e-01</_>
    <_>
      9.83240247e-01 6.11764729e-01</_>
    <_>
      9.83240247e-01 6.11764729e-01</_>
    <_>
      9.88826811e-01 5.92156887e-01</_>
    <_>
      9.88826811e-01 5.80392182e-01</_>
    <_>
      9.88826811e-01 5.84313750e-01</_>
    <_>
      5.69832385e-01 3.76470596e-01</_>
    <_>
      6.08938575e-01 2.54901975e-01</_>
    <_>
      6.25698328e-01 3.05882365e-01</_>
    <_>
      6.70391083e-01 3.33333343e-01</_>
    <_>
      6.87150836e-01 3.29411775e-01</_>
    <_>
      6.87150836e-01 3.80392164e-01</_>
    <_>
      9.77653623e-01 6.03921592e-01</_>
    <_>
      9.77653623e-01 5.80392182e-01</_>
    <_>
      9.77653623e-01 6.00000024e-01</_>
    <_>
      9.77653623e-01 6.07843161e-01</_>
    <_>
      9.77653623e-01 6.23529434e-01</_>
    <_>
      9.77653623e-01 6.11764729e-01</_>
    <_>
      9.77653623e-01 6.03921592e-01</_>
    <_>
      9.77653623e-01 5.76470613e-01</_>
    <_>
      9.77653623e-01 5.72549045e-01</_>
    <_>
      9.77653623e-01 5.72549045e-01</_>
    <_>
      9.77653623e-01 6.03921592e-01</_>
    <_>
      9.77653623e-01 5.96078455e-01</_>
    <_>
      9.77653623e-01 6.07843161e-01</_>
    <_>
      9.77653623e-01 5.92156887e-01</_>
    <_>
      9.77653623e-01 6.00000024e-01</_>
    <_>
      9.77653623e-01 6.07843161e-01</_>
    <_>
      9.77653623e-01 6.15686297e-01</_>
    <_>
      9.72067058e-01 6.15686297e-01</_>
    <_>
      9.77653623e-01 5.84313750e-01</_>
    <_>
      9.77653623e-01 5.84313750e-01</_>
    <_>
      9.77653623e-01 6.15686297e-01</_>
    <_>
      9.77653623e-01 6.03921592e-01</_>
    <_>
      9.77653623e-01 6.00000024e-01</_>
    <_>
      9.77653623e-01 6.03921592e-01</_>
    <_>
      9.77653623e-01 5.80392182e-01</_>
    <_>
      9.72067058e-01 6.23529434e-01</_>
    <_>
      9.72067058e-01 6.19607866e-01</_>
    <_>
      9.72067058e-01 6.19607866e-01</_>
    <_>
      9.72067058e-01 6.15686297e-01</_>
    <_>
      9.72067058e-01 6.31372571e-01</_>
    <_>
      9.72067058e-01 6.15686297e-01</_>
    <_>
      9.72067058e-01 6.27451003e-01</_>
    <_>
      9.72067058e-01 6.19607866e-01</_>
    <_>
      9.77653623e-01 6.00000024e-01</_>
    <_>
      9.77653623e-01 6.00000024e-01</_>
    <_>
      9.72067058e-01 6.31372571e-01</_>
    <_>
      9.77653623e-01 6.47058845e-01</_>
    <_>
      9.72067058e-01 6.27451003e-01</_>
    <_>
      9.77653623e-01 6.03921592e-01</_>
    <_>
      9.72067058e-01 6.50980413e-01</_>
    <_>
      9.72067058e-01 6.31372571e-01</_>
    <_>
      9.77653623e-01 5.80392182e-01</_>
    <_>
      9.77653623e-01 5.88235319e-01</_>
    <_>
      9.83240247e-01 6.15686297e-01</_>
    <_>
      9.77653623e-01 6.11764729e-01</_>
    <_>
      9.72067058e-01 6.19607866e-01</_>
    <_>
      9.83240247e-01 5.88235319e-01</_>
    <_>
      9.83240247e-01 6.07843161e-01</_>
    <_>
      9.83240247e-01 6.07843161e-01</_>
    <_>
      9.77653623e-01 5.76470613e-01</_>
    <_>
      9.77653623e-01 6.00000024e-01</_>
    <_>
      9.77653623e-01 5.64705908e-01</_>
    <_>
      9.77653623e-01 5.68627477e-01</_>
    <_>
      9.72067058e-01 6.15686297e-01</_>
    <_>
      9.72067058e-01 6.19607866e-01</_>
    <_>
      9.77653623e-01 5.64705908e-01</_>
    <_>
      2.45810062e-01 4.19607848e-01</_>
    <_>
      8.82681549e-01 4.11764711e-01</_>
    <_>
      9.72067058e-01 5.64705908e-01</_>
    <_>
      9.83240247e-01 4.62745100e-01</_>
    <_>
      9.83240247e-01 4.94117647e-01</_>
    <_>
      6.70391083e-01 1.88235298e-01</_>
    <_>
      2.56983250e-01 5.09803951e-01</_>
    <_>
      4.35754180e-01 2.50980407e-01</_>
    <_>
      6.92737401e-01 2.66666681e-01</_>
    <_>
      6.87150836e-01 2.74509817e-01</_>
    <_>
      3.35195541e-01 4.70588237e-01</_>
    <_>
      6.53631270e-01 3.13725501e-01</_>
    <_>
      6.98324025e-01 3.25490206e-01</_>
    <_>
      6.92737401e-01 3.64705890e-01</_>
    <_>
      7.03910589e-01 3.49019617e-01</_>
    <_>
      5.36312878e-01 2.62745112e-01</_>
    <_>
      6.70391083e-01 2.31372550e-01</_>
    <_>
      6.98324025e-01 3.17647070e-01</_>
    <_>
      6.98324025e-01 3.60784322e-01</_>
    <_>
      6.98324025e-01 3.52941185e-01</_>
    <_>
      6.87150836e-01 3.88235301e-01</_>
    <_>
      6.42458081e-01 2.00000003e-01</_>
    <_>
      6.87150836e-01 2.50980407e-01</_>
    <_>
      6.98324025e-01 3.01960796e-01</_>
    <_>
      6.81564271e-01 2.90196091e-01</_>
    <_>
      6.81564271e-01 3.05882365e-01</_>
    <_>
      6.81564271e-01 3.68627459e-01</_>
    <_>
      6.81564271e-01 3.80392164e-01</_>
    <_>
      2.73743004e-01 9.80392173e-02</_>
    <_>
      2.96089381e-01 1.09803922e-01</_>
    <_>
      2.90502787e-01 1.05882354e-01</_>
    <_>
      2.90502787e-01 1.01960786e-01</_>
    <_>
      2.68156439e-01 9.01960805e-02</_>
    <_>
      2.84916192e-01 9.80392173e-02</_>
    <_>
      2.68156439e-01 8.62745121e-02</_>
    <_>
      2.56983250e-01 7.45098069e-02</_>
    <_>
      3.12849164e-01 1.09803922e-01</_>
    <_>
      2.56983250e-01 7.45098069e-02</_>
    <_>
      3.01675975e-01 1.09803922e-01</_>
    <_>
      3.12849164e-01 1.09803922e-01</_>
    <_>
      3.12849164e-01 1.09803922e-01</_>
    <_>
      3.12849164e-01 1.09803922e-01</_>
    <_>
      3.12849164e-01 1.09803922e-01</_>
    <_>
      3.12849164e-01 1.09803922e-01</_>
    <_>
      3.12849164e-01 1.09803922e-01</_>
    <_>
      3.24022353e-01 5.88235319e-01</_>
    <_>
      3.24022353e-01 5.49019635e-01</_>
    <_>
      3.24022353e-01 3.96078438e-01</_>
    <_>
      3.51955295e-01 3.68627459e-01</_>
    <_>
      3.46368700e-01 3.84313732e-01</_>
    <_>
      9.77653623e-01 5.45098066e-01</_>
    <_>
      9.83240247e-01 5.29411793e-01</_>
    <_>
      9.77653623e-01 6.00000024e-01</_>
    <_>
      9.77653623e-01 5.84313750e-01</_>
    <_>
      9.77653623e-01 5.96078455e-01</_>
    <_>
      9.77653623e-01 5.88235319e-01</_>
    <_>
      9.72067058e-01 6.54901981e-01</_>
    <_>
      9.72067058e-01 6.27451003e-01</_>
    <_>
      9.83240247e-01 5.41176498e-01</_>
    <_>
      9.83240247e-01 5.68627477e-01</_>
    <_>
      9.77653623e-01 5.96078455e-01</_>
    <_>
      9.77653623e-01 6.03921592e-01</_>
    <_>
      9.77653623e-01 5.72549045e-01</_>
    <_>
      9.77653623e-01 5.76470613e-01</_>
    <_>
      9.77653623e-01 6.23529434e-01</_>
    <_>
      9.72067058e-01 6.15686297e-01</_>
    <_>
      9.77653623e-01 5.60784340e-01</_>
    <_>
      9.83240247e-01 6.11764729e-01</_>
    <_>
      9.77653623e-01 6.11764729e-01</_>
    <_>
      9.77653623e-01 5.80392182e-01</_>
    <_>
      9.77653623e-01 5.72549045e-01</_>
    <_>
      9.77653623e-01 5.80392182e-01</_>
    <_>
      9.77653623e-01 5.80392182e-01</_>
    <_>
      9.83240247e-01 5.60784340e-01</_>
    <_>
      9.83240247e-01 5.56862772e-01</_>
    <_>
      9.77653623e-01 5.84313750e-01</_>
    <_>
      9.77653623e-01 5.72549045e-01</_>
    <_>
      9.77653623e-01 5.56862772e-01</_>
    <_>
      9.77653623e-01 6.00000024e-01</_>
    <_>
      9.72067058e-01 6.15686297e-01</_>
    <_>
      9.77653623e-01 5.64705908e-01</_>
    <_>
      9.77653623e-01 5.92156887e-01</_>
    <_>
      9.72067058e-01 6.43137276e-01</_>
    <_>
      9.83240247e-01 6.19607866e-01</_>
    <_>
      9.83240247e-01 6.82352960e-01</_>
    <_>
      9.77653623e-01 5.72549045e-01</_>
    <_>
      9.77653623e-01 5.76470613e-01</_>
    <_>
      9.77653623e-01 5.56862772e-01</_>
    <_>
      9.77653623e-01 5.68627477e-01</_>
    <_>
      9.77653623e-01 5.96078455e-01</_>
    <_>
      9.77653623e-01 5.76470613e-01</_>
    <_>
      9.83240247e-01 5.68627477e-01</_>
    <_>
      9.83240247e-01 5.76470613e-01</_>
    <_>
      9.77653623e-01 5.76470613e-01</_>
    <_>
      9.77653623e-01 6.00000024e-01</_>
    <_>
      9.72067058e-01 6.23529434e-01</_>
    <_>
      9.77653623e-01 5.72549045e-01</_>
    <_>
      9.77653623e-01 5.60784340e-01</_>
    <_>
      9.77653623e-01 5.56862772e-01</_>
    <_>
      9.77653623e-01 5.76470613e-01</_>
    <_>
      9.77653623e-01 5.72549045e-01</_>
    <_>
      9.77653623e-01 5.68627477e-01</_>
    <_>
      9.83240247e-01 5.68627477e-01</_>
    <_>
      9.77653623e-01 5.52941203e-01</_>
    <_>
      9.77653623e-01 5.76470613e-01</_>
    <_>
      9.77653623e-01 5.52941203e-01</_>
    <_>
      9.77653623e-01 5.68627477e-01</_>
    <_>
      9.77653623e-01 5.52941203e-01</_>
    <_>
      9.77653623e-01 5.68627477e-01</_>
    <_>
      9.77653623e-01 5.84313750e-01</_>
    <_>
      9.77653623e-01 5.60784340e-01</_>
    <_>
      9.83240247e-01 5.64705908e-01</_>
    <_>
      9.83240247e-01 5.29411793e-01</_>
    <_>
      9.77653623e-01 5.45098066e-01</_>
    <_>
      9.72067058e-01 6.58823550e-01</_>
    <_>
      9.77653623e-01 5.72549045e-01</_>
    <_>
      9.77653623e-01 5.72549045e-01</_>
    <_>
      9.77653623e-01 5.76470613e-01</_>
    <_>
      9.77653623e-01 5.76470613e-01</_>
    <_>
      9.83240247e-01 6.19607866e-01</_>
    <_>
      9.77653623e-01 5.52941203e-01</_>
    <_>
      9.77653623e-01 5.60784340e-01</_>
    <_>
      9.77653623e-01 5.68627477e-01</_>
    <_>
      9.83240247e-01 5.17647088e-01</_>
    <_>
      9.77653623e-01 5.68627477e-01</_>
    <_>
      9.77653623e-01 5.52941203e-01</_>
    <_>
      9.77653623e-01 5.84313750e-01</_>
    <_>
      9.77653623e-01 5.96078455e-01</_>
    <_>
      9.83240247e-01 7.41176486e-01</_>
    <_>
      9.77653623e-01 5.52941203e-01</_>
    <_>
      9.83240247e-01 5.64705908e-01</_>
    <_>
      9.83240247e-01 5.17647088e-01</_>
    <_>
      9.77653623e-01 5.49019635e-01</_>
    <_>
      9.77653623e-01 5.49019635e-01</_>
    <_>
      9.77653623e-01 5.92156887e-01</_>
    <_>
      9.77653623e-01 6.86274529e-01</_>
    <_>
      9.83240247e-01 5.52941203e-01</_>
    <_>
      9.83240247e-01 5.60784340e-01</_>
    <_>
      9.77653623e-01 5.45098066e-01</_>
    <_>
      9.77653623e-01 5.52941203e-01</_>
    <_>
      9.77653623e-01 5.92156887e-01</_>
    <_>
      9.77653623e-01 5.68627477e-01</_>
    <_>
      9.77653623e-01 5.45098066e-01</_>
    <_>
      9.77653623e-01 5.41176498e-01</_>
    <_>
      9.77653623e-01 6.35294139e-01</_>
    <_>
      9.77653623e-01 5.60784340e-01</_>
    <_>
      9.77653623e-01 5.56862772e-01</_>
    <_>
      9.77653623e-01 5.64705908e-01</_>
    <_>
      9.77653623e-01 5.60784340e-01</_>
    <_>
      9.77653623e-01 5.52941203e-01</_>
    <_>
      9.83240247e-01 5.45098066e-01</_>
    <_>
      9.77653623e-01 5.60784340e-01</_>
    <_>
      9.77653623e-01 6.00000024e-01</_>
    <_>
      9.77653623e-01 5.80392182e-01</_>
    <_>
      9.77653623e-01 5.60784340e-01</_>
    <_>
      9.83240247e-01 5.64705908e-01</_>
    <_>
      9.77653623e-01 5.64705908e-01</_>
    <_>
      9.77653623e-01 5.60784340e-01</_>
    <_>
      9.77653623e-01 5.41176498e-01</_>
    <_>
      9.72067058e-01 5.25490224e-01</_>
    <_>
      9.77653623e-01 5.60784340e-01</_>
    <_>
      9.83240247e-01 5.64705908e-01</_>
    <_>
      9.77653623e-01 5.80392182e-01</_>
    <_>
      9.83240247e-01 5.60784340e-01</_>
    <_>
      9.77653623e-01 5.49019635e-01</_>
    <_>
      9.77653623e-01 5.68627477e-01</_>
    <_>
      9.77653623e-01 5.68627477e-01</_>
    <_>
      9.83240247e-01 5.49019635e-01</_>
    <_>
      9.77653623e-01 5.64705908e-01</_>
    <_>
      9.77653623e-01 5.49019635e-01</_>
    <_>
      9.77653623e-01 5.49019635e-01</_>
    <_>
      9.77653623e-01 5.76470613e-01</_>
    <_>
      9.77653623e-01 5.49019635e-01</_>
    <_>
      9.72067058e-01 6.19607866e-01</_>
    <_>
      9.72067058e-01 6.31372571e-01</_>
    <_>
      9.83240247e-01 5.13725519e-01</_>
    <_>
      9.77653623e-01 5.37254930e-01</_>
    <_>
      9.77653623e-01 5.80392182e-01</_>
    <_>
      9.83240247e-01 5.60784340e-01</_>
    <_>
      9.77653623e-01 5.72549045e-01</_>
    <_>
      9.77653623e-01 5.76470613e-01</_>
    <_>
      9.77653623e-01 5.60784340e-01</_>
    <_>
      9.77653623e-01 6.54901981e-01</_>
    <_>
      9.77653623e-01 5.60784340e-01</_>
    <_>
      9.77653623e-01 5.21568656e-01</_>
    <_>
      9.77653623e-01 5.21568656e-01</_>
    <_>
      9.77653623e-01 6.07843161e-01</_>
    <_>
      9.77653623e-01 6.50980413e-01</_>
    <_>
      9.77653623e-01 6.11764729e-01</_>
    <_>
      9.77653623e-01 5.88235319e-01</_>
    <_>
      9.77653623e-01 6.03921592e-01</_>
    <_>
      9.77653623e-01 5.92156887e-01</_>
    <_>
      9.77653623e-01 5.68627477e-01</_>
    <_>
      9.77653623e-01 5.33333361e-01</_>
    <_>
      9.77653623e-01 5.68627477e-01</_>
    <_>
      9.94413435e-01 5.13725519e-01</_>
    <_>
      9.77653623e-01 5.52941203e-01</_>
    <_>
      9.72067058e-01 6.27451003e-01</_>
    <_>
      9.77653623e-01 5.13725519e-01</_>
    <_>
      9.77653623e-01 5.84313750e-01</_>
    <_>
      9.77653623e-01 6.00000024e-01</_>
    <_>
      9.77653623e-01 5.76470613e-01</_>
    <_>
      9.77653623e-01 5.96078455e-01</_>
    <_>
      9.77653623e-01 5.52941203e-01</_>
    <_>
      9.77653623e-01 5.29411793e-01</_>
    <_>
      9.77653623e-01 5.72549045e-01</_>
    <_>
      9.88826811e-01 5.56862772e-01</_>
    <_>
      9.83240247e-01 5.45098066e-01</_>
    <_>
      9.77653623e-01 5.17647088e-01</_>
    <_>
      9.77653623e-01 5.49019635e-01</_>
    <_>
      9.77653623e-01 5.52941203e-01</_>
    <_>
      9.77653623e-01 5.01960814e-01</_>
    <_>
      9.77653623e-01 5.68627477e-01</_>
    <_>
      9.77653623e-01 6.11764729e-01</_>
    <_>
      9.77653623e-01 5.72549045e-01</_>
    <_>
      9.83240247e-01 5.84313750e-01</_>
    <_>
      9.83240247e-01 5.64705908e-01</_>
    <_>
      9.77653623e-01 5.49019635e-01</_>
    <_>
      9.83240247e-01 5.45098066e-01</_>
    <_>
      9.83240247e-01 5.60784340e-01</_>
    <_>
      9.83240247e-01 5.72549045e-01</_>
    <_>
      9.77653623e-01 5.45098066e-01</_>
    <_>
      9.72067058e-01 5.29411793e-01</_>
    <_>
      9.77653623e-01 5.29411793e-01</_>
    <_>
      9.77653623e-01 5.33333361e-01</_>
    <_>
      9.77653623e-01 5.52941203e-01</_>
    <_>
      9.77653623e-01 5.17647088e-01</_>
    <_>
      9.77653623e-01 5.21568656e-01</_>
    <_>
      9.77653623e-01 5.33333361e-01</_>
    <_>
      9.77653623e-01 5.37254930e-01</_>
    <_>
      9.77653623e-01 6.11764729e-01</_>
    <_>
      9.77653623e-01 5.64705908e-01</_>
    <_>
      9.77653623e-01 5.72549045e-01</_>
    <_>
      9.83240247e-01 5.80392182e-01</_>
    <_>
      9.83240247e-01 5.76470613e-01</_>
    <_>
      9.77653623e-01 5.41176498e-01</_>
    <_>
      9.77653623e-01 5.80392182e-01</_>
    <_>
      9.83240247e-01 5.96078455e-01</_>
    <_>
      9.77653623e-01 6.03921592e-01</_>
    <_>
      9.83240247e-01 5.29411793e-01</_>
    <_>
      9.77653623e-01 5.45098066e-01</_>
    <_>
      9.83240247e-01 5.17647088e-01</_>
    <_>
      9.77653623e-01 5.25490224e-01</_>
    <_>
      9.72067058e-01 4.70588237e-01</_>
    <_>
      9.72067058e-01 4.62745100e-01</_>
    <_>
      9.72067058e-01 4.98039216e-01</_>
    <_>
      9.72067058e-01 5.29411793e-01</_>
    <_>
      9.72067058e-01 5.25490224e-01</_>
    <_>
      9.72067058e-01 5.13725519e-01</_>
    <_>
      9.77653623e-01 5.64705908e-01</_>
    <_>
      9.83240247e-01 5.56862772e-01</_>
    <_>
      9.83240247e-01 5.56862772e-01</_>
    <_>
      9.83240247e-01 5.84313750e-01</_>
    <_>
      9.77653623e-01 5.84313750e-01</_>
    <_>
      9.77653623e-01 5.45098066e-01</_>
    <_>
      9.72067058e-01 5.17647088e-01</_>
    <_>
      9.72067058e-01 5.29411793e-01</_>
    <_>
      9.77653623e-01 5.25490224e-01</_>
    <_>
      9.77653623e-01 4.90196079e-01</_>
    <_>
      9.77653623e-01 5.60784340e-01</_>
    <_>
      9.77653623e-01 5.49019635e-01</_>
    <_>
      9.83240247e-01 5.37254930e-01</_>
    <_>
      9.77653623e-01 5.64705908e-01</_>
    <_>
      9.83240247e-01 5.80392182e-01</_>
    <_>
      9.77653623e-01 5.52941203e-01</_>
    <_>
      9.77653623e-01 5.49019635e-01</_>
    <_>
      9.77653623e-01 5.64705908e-01</_>
    <_>
      9.72067058e-01 4.54901963e-01</_>
    <_>
      9.66480434e-01 4.54901963e-01</_>
    <_>
      9.72067058e-01 5.17647088e-01</_>
    <_>
      9.77653623e-01 5.29411793e-01</_>
    <_>
      9.77653623e-01 5.05882382e-01</_>
    <_>
      9.83240247e-01 5.17647088e-01</_>
    <_>
      9.77653623e-01 5.80392182e-01</_>
    <_>
      9.77653623e-01 5.41176498e-01</_>
    <_>
      9.77653623e-01 5.13725519e-01</_>
    <_>
      9.77653623e-01 5.25490224e-01</_>
    <_>
      9.77653623e-01 5.29411793e-01</_>
    <_>
      9.88826811e-01 5.68627477e-01</_>
    <_>
      9.88826811e-01 5.56862772e-01</_>
    <_>
      9.88826811e-01 5.49019635e-01</_>
    <_>
      9.88826811e-01 5.56862772e-01</_>
    <_>
      9.88826811e-01 5.60784340e-01</_>
    <_>
      9.88826811e-01 5.52941203e-01</_>
    <_>
      9.88826811e-01 5.49019635e-01</_>
    <_>
      9.88826811e-01 5.92156887e-01</_>
    <_>
      9.88826811e-01 5.76470613e-01</_>
    <_>
      9.88826811e-01 4.94117647e-01</_>
    <_>
      9.88826811e-01 5.17647088e-01</_>
    <_>
      9.88826811e-01 4.90196079e-01</_>
    <_>
      9.88826811e-01 5.09803951e-01</_>
    <_>
      9.83240247e-01 4.35294122e-01</_>
    <_>
      9.88826811e-01 5.37254930e-01</_>
    <_>
      9.83240247e-01 4.66666669e-01</_>
    <_>
      9.88826811e-01 5.05882382e-01</_>
    <_>
      9.88826811e-01 5.01960814e-01</_>
    <_>
      9.83240247e-01 4.94117647e-01</_>
    <_>
      9.83240247e-01 5.09803951e-01</_>
    <_>
      9.88826811e-01 5.45098066e-01</_>
    <_>
      9.83240247e-01 4.82352942e-01</_>
    <_>
      9.77653623e-01 4.58823532e-01</_>
    <_>
      9.72067058e-01 5.56862772e-01</_>
    <_>
      9.83240247e-01 4.90196079e-01</_>
    <_>
      9.83240247e-01 4.70588237e-01</_>
    <_>
      9.88826811e-01 4.86274511e-01</_>
    <_>
      9.83240247e-01 4.98039216e-01</_>
    <_>
      9.88826811e-01 4.94117647e-01</_>
    <_>
      9.88826811e-01 4.90196079e-01</_>
    <_>
      9.88826811e-01 4.98039216e-01</_>
    <_>
      9.88826811e-01 5.49019635e-01</_>
    <_>
      9.88826811e-01 5.01960814e-01</_>
    <_>
      9.88826811e-01 5.01960814e-01</_>
    <_>
      9.88826811e-01 4.82352942e-01</_>
    <_>
      9.83240247e-01 5.25490224e-01</_>
    <_>
      9.83240247e-01 4.78431374e-01</_>
    <_>
      9.83240247e-01 5.01960814e-01</_>
    <_>
      9.83240247e-01 4.70588237e-01</_>
    <_>
      9.88826811e-01 5.13725519e-01</_>
    <_>
      9.88826811e-01 5.09803951e-01</_>
    <_>
      9.88826811e-01 5.13725519e-01</_>
    <_>
      9.83240247e-01 4.86274511e-01</_>
    <_>
      9.88826811e-01 5.05882382e-01</_>
    <_>
      9.88826811e-01 4.82352942e-01</_>
    <_>
      9.88826811e-01 5.13725519e-01</_>
    <_>
      9.88826811e-01 4.94117647e-01</_>
    <_>
      9.88826811e-01 4.82352942e-01</_>
    <_>
      9.88826811e-01 4.94117647e-01</_>
    <_>
      9.83240247e-01 4.39215690e-01</_>
    <_>
      9.83240247e-01 5.64705908e-01</_>
    <_>
      9.88826811e-01 5.01960814e-01</_>
    <_>
      9.88826811e-01 5.21568656e-01</_>
    <_>
      9.88826811e-01 5.01960814e-01</_>
    <_>
      9.88826811e-01 4.94117647e-01</_>
    <_>
      9.83240247e-01 4.50980395e-01</_>
    <_>
      9.88826811e-01 5.01960814e-01</_>
    <_>
      9.88826811e-01 4.94117647e-01</_>
    <_>
      9.88826811e-01 5.09803951e-01</_>
    <_>
      9.88826811e-01 5.21568656e-01</_>
    <_>
      9.88826811e-01 4.94117647e-01</_>
    <_>
      9.88826811e-01 4.90196079e-01</_>
    <_>
      9.88826811e-01 4.98039216e-01</_>
    <_>
      9.88826811e-01 5.09803951e-01</_>
    <_>
      9.88826811e-01 5.13725519e-01</_>
    <_>
      9.83240247e-01 4.43137258e-01</_>
    <_>
      9.88826811e-01 5.05882382e-01</_>
    <_>
      9.83240247e-01 4.90196079e-01</_>
    <_>
      9.83240247e-01 4.62745100e-01</_>
    <_>
      9.88826811e-01 4.94117647e-01</_>
    <_>
      9.83240247e-01 4.62745100e-01</_>
    <_>
      9.88826811e-01 5.05882382e-01</_>
    <_>
      9.83240247e-01 5.68627477e-01</_>
    <_>
      9.83240247e-01 5.41176498e-01</_>
    <_>
      9.83240247e-01 5.52941203e-01</_>
    <_>
      9.88826811e-01 5.01960814e-01</_>
    <_>
      9.88826811e-01 5.21568656e-01</_>
    <_>
      9.88826811e-01 4.90196079e-01</_>
    <_>
      9.88826811e-01 5.01960814e-01</_>
    <_>
      9.88826811e-01 5.01960814e-01</_>
    <_>
      9.88826811e-01 5.13725519e-01</_>
    <_>
      9.88826811e-01 4.86274511e-01</_>
    <_>
      9.88826811e-01 5.41176498e-01</_>
    <_>
      9.83240247e-01 5.21568656e-01</_>
    <_>
      9.88826811e-01 5.01960814e-01</_>
    <_>
      9.88826811e-01 5.09803951e-01</_>
    <_>
      9.88826811e-01 4.94117647e-01</_>
    <_>
      9.88826811e-01 5.17647088e-01</_>
    <_>
      9.83240247e-01 4.90196079e-01</_>
    <_>
      9.88826811e-01 4.82352942e-01</_>
    <_>
      9.88826811e-01 5.17647088e-01</_>
    <_>
      9.83240247e-01 4.58823532e-01</_>
    <_>
      9.83240247e-01 4.98039216e-01</_>
    <_>
      9.72067058e-01 4.19607848e-01</_>
    <_>
      9.83240247e-01 4.74509805e-01</_>
    <_>
      9.88826811e-01 4.90196079e-01</_>
    <_>
      9.88826811e-01 5.01960814e-01</_>
    <_>
      9.77653623e-01 4.50980395e-01</_>
    <_>
      9.88826811e-01 4.90196079e-01</_>
    <_>
      9.88826811e-01 5.05882382e-01</_>
    <_>
      9.88826811e-01 5.05882382e-01</_>
    <_>
      9.88826811e-01 4.82352942e-01</_>
    <_>
      9.88826811e-01 6.39215708e-01</_>
    <_>
      9.88826811e-01 6.86274529e-01</_>
    <_>
      9.88826811e-01 6.54901981e-01</_>
    <_>
      9.88826811e-01 6.58823550e-01</_>
    <_>
      9.88826811e-01 6.62745118e-01</_>
    <_>
      9.88826811e-01 6.43137276e-01</_>
    <_>
      9.88826811e-01 6.94117665e-01</_>
    <_>
      9.83240247e-01 6.66666687e-01</_>
    <_>
      9.88826811e-01 6.62745118e-01</_>
    <_>
      9.83240247e-01 6.47058845e-01</_>
    <_>
      9.88826811e-01 6.70588255e-01</_>
    <_>
      9.83240247e-01 6.74509823e-01</_>
    <_>
      9.83240247e-01 6.54901981e-01</_>
    <_>
      9.88826811e-01 6.54901981e-01</_>
    <_>
      9.88826811e-01 6.54901981e-01</_>
    <_>
      9.88826811e-01 6.58823550e-01</_>
    <_>
      9.88826811e-01 6.86274529e-01</_>
    <_>
      9.83240247e-01 6.70588255e-01</_>
    <_>
      9.83240247e-01 6.74509823e-01</_>
    <_>
      9.83240247e-01 6.62745118e-01</_>
    <_>
      9.83240247e-01 6.74509823e-01</_>
    <_>
      9.88826811e-01 6.58823550e-01</_>
    <_>
      9.88826811e-01 6.54901981e-01</_>
    <_>
      9.88826811e-01 6.66666687e-01</_>
    <_>
      9.88826811e-01 6.98039234e-01</_>
    <_>
      9.88826811e-01 6.54901981e-01</_>
    <_>
      9.83240247e-01 6.70588255e-01</_>
    <_>
      9.88826811e-01 6.50980413e-01</_>
    <_>
      9.83240247e-01 6.74509823e-01</_>
    <_>
      9.83240247e-01 6.70588255e-01</_>
    <_>
      9.83240247e-01 6.82352960e-01</_>
    <_>
      9.77653623e-01 6.86274529e-01</_>
    <_>
      9.83240247e-01 6.94117665e-01</_>
    <_>
      9.83240247e-01 6.90196097e-01</_>
    <_>
      9.83240247e-01 6.86274529e-01</_>
    <_>
      9.88826811e-01 6.58823550e-01</_>
    <_>
      9.88826811e-01 7.05882370e-01</_>
    <_>
      9.83240247e-01 6.70588255e-01</_>
    <_>
      9.88826811e-01 6.74509823e-01</_>
    <_>
      9.88826811e-01 6.62745118e-01</_>
    <_>
      9.83240247e-01 6.86274529e-01</_>
    <_>
      9.83240247e-01 6.90196097e-01</_>
    <_>
      9.83240247e-01 6.66666687e-01</_>
    <_>
      9.88826811e-01 6.70588255e-01</_>
    <_>
      9.88826811e-01 6.62745118e-01</_>
    <_>
      9.88826811e-01 6.74509823e-01</_>
    <_>
      9.88826811e-01 6.74509823e-01</_>
    <_>
      9.88826811e-01 6.82352960e-01</_>
    <_>
      9.88826811e-01 6.58823550e-01</_>
    <_>
      9.88826811e-01 6.66666687e-01</_>
    <_>
      9.88826811e-01 6.62745118e-01</_>
    <_>
      9.88826811e-01 6.70588255e-01</_>
    <_>
      9.88826811e-01 6.62745118e-01</_>
    <_>
      9.88826811e-01 6.70588255e-01</_>
    <_>
      9.88826811e-01 6.54901981e-01</_>
    <_>
      9.88826811e-01 6.50980413e-01</_>
    <_>
      9.88826811e-01 6.50980413e-01</_>
    <_>
      9.88826811e-01 6.86274529e-01</_>
    <_>
      9.88826811e-01 6.78431392e-01</_>
    <_>
      9.88826811e-01 6.86274529e-01</_>
    <_>
      9.88826811e-01 6.70588255e-01</_>
    <_>
      9.88826811e-01 6.62745118e-01</_>
    <_>
      9.88826811e-01 6.58823550e-01</_>
    <_>
      9.88826811e-01 6.74509823e-01</_>
    <_>
      9.83240247e-01 6.74509823e-01</_>
    <_>
      9.83240247e-01 6.78431392e-01</_>
    <_>
      9.88826811e-01 6.70588255e-01</_>
    <_>
      9.88826811e-01 6.62745118e-01</_>
    <_>
      9.88826811e-01 6.70588255e-01</_>
    <_>
      9.88826811e-01 6.82352960e-01</_>
    <_>
      9.83240247e-01 6.74509823e-01</_>
    <_>
      9.83240247e-01 6.66666687e-01</_>
    <_>
      9.83240247e-01 6.86274529e-01</_>
    <_>
      9.88826811e-01 6.62745118e-01</_>
    <_>
      9.88826811e-01 6.62745118e-01</_>
    <_>
      9.88826811e-01 6.82352960e-01</_>
    <_>
      9.83240247e-01 6.78431392e-01</_>
    <_>
      9.88826811e-01 6.74509823e-01</_>
    <_>
      9.88826811e-01 6.54901981e-01</_>
    <_>
      9.88826811e-01 6.35294139e-01</_>
    <_>
      9.88826811e-01 6.62745118e-01</_>
    <_>
      9.88826811e-01 6.50980413e-01</_>
    <_>
      9.83240247e-01 6.70588255e-01</_>
    <_>
      9.83240247e-01 6.70588255e-01</_>
    <_>
      9.83240247e-01 6.70588255e-01</_>
    <_>
      9.83240247e-01 6.50980413e-01</_>
    <_>
      9.88826811e-01 6.82352960e-01</_>
    <_>
      9.88826811e-01 6.66666687e-01</_>
    <_>
      9.88826811e-01 6.54901981e-01</_>
    <_>
      9.88826811e-01 6.62745118e-01</_>
    <_>
      9.88826811e-01 6.43137276e-01</_>
    <_>
      9.88826811e-01 6.54901981e-01</_>
    <_>
      9.88826811e-01 6.43137276e-01</_>
    <_>
      9.88826811e-01 6.66666687e-01</_>
    <_>
      9.83240247e-01 6.74509823e-01</_>
    <_>
      9.83240247e-01 6.82352960e-01</_>
    <_>
      9.77653623e-01 6.82352960e-01</_>
    <_>
      9.88826811e-01 6.50980413e-01</_>
    <_>
      9.88826811e-01 6.58823550e-01</_>
    <_>
      9.88826811e-01 6.54901981e-01</_>
    <_>
      9.88826811e-01 6.58823550e-01</_>
    <_>
      9.88826811e-01 6.50980413e-01</_>
    <_>
      9.77653623e-01 6.47058845e-01</_>
    <_>
      9.83240247e-01 6.54901981e-01</_>
    <_>
      9.88826811e-01 6.54901981e-01</_>
    <_>
      9.88826811e-01 6.39215708e-01</_>
    <_>
      9.83240247e-01 6.50980413e-01</_>
    <_>
      9.83240247e-01 6.43137276e-01</_>
    <_>
      9.88826811e-01 6.54901981e-01</_>
    <_>
      9.88826811e-01 6.54901981e-01</_>
    <_>
      9.88826811e-01 6.82352960e-01</_>
    <_>
      9.88826811e-01 6.74509823e-01</_>
    <_>
      9.83240247e-01 6.70588255e-01</_>
    <_>
      9.88826811e-01 6.62745118e-01</_>
    <_>
      2.45810062e-01 9.80392173e-02</_>
    <_>
      5.69832385e-01 5.49019612e-02</_>
    <_>
      2.62569845e-01 1.49019614e-01</_>
    <_>
      6.31284893e-01 6.15686297e-01</_>
    <_>
      5.97765386e-01 2.00000003e-01</_>
    <_>
      2.79329598e-01 1.37254909e-01</_>
    <_>
      6.25698328e-01 3.25490206e-01</_>
    <_>
      6.20111704e-01 4.35294122e-01</_>
    <_>
      2.62569845e-01 7.45098069e-02</_>
    <_>
      6.25698328e-01 4.39215690e-01</_>
    <_>
      6.25698328e-01 3.45098048e-01</_>
    <_>
      6.53631270e-01 4.74509805e-01</_></support_vectors>
  <decision_functions>
    <_>
      <sv_count>48</sv_count>
      <rho>9.4315302540233348e-01</rho>
      <alpha>
        8.4326190419663192e+00 10. 10. 8.3297204424944908e+00 10. 10.
        3.8698275442462386e+00 7.0138908344892914e-01
        5.4592491654174724e+00 10. 10. 10. 10. 10.
        3.2151533400718111e+00 10. 10. 2.2373492191169602e+00 10. 10.
        10. 10. 4.7637923349661087e+00 10. 10. 10.
        -8.6871035347343959e+00 -10. -10. -10. -10. -10. -10. -10.
        -8.3219966369938927e+00 -10. -10. -10. -10. -10. -10. -10. -10.
        -10. -10. -10. -10. -10.</alpha>
      <index>
        101 102 103 1403 1401 1021 1046 1044 952 951 949 950 978 979
        1001 1014 991 1007 1008 981 982 980 990 986 987 100 929 93 94 95
        96 97 98 99 87 88 89 90 91 92 78 83 84 85 86 82 80 81</index></_>
    <_>
      <sv_count>97</sv_count>
      <rho>1.1805833376654793e+00</rho>
      <alpha>
        7.5989608698983897e+00 10. 10. 10. 6.4567001624452791e+00 10.
        10. 10. 10. 10. 10. 10. 10. 10. 10. 10. 4.3701077579658039e+00
        10. 8.1396600467452895e+00 10. 10. 10. 10. 10. 10. 10. 10. 10.
        10. 10. 10. 10. 10. 10. 10. 10. 10. 10. 10. 10.
        6.4198389720327187e+00 10. 10. 10. 10. 10. 10. 10.
        -4.2140349066830424e-01 -10. -10. -10. -10. -10. -10. -10. -10.
        -10. -10. -10. -10. -10. -10. -10. -10. -1.0519627799958715e+00
        -10. -10. -10. -10. -10. -10. -10. -10. -10. -10. -10. -10. -10.
        -10. -10. -10. -10. -10. -10. -10. -10. -1.5119015384232846e+00
        -10. -10. -10. -10. -10. -10. -10. -10. -10.</alpha>
      <index>
        1406 1029 1030 1031 1033 1034 1035 1036 1037 1038 1023 1019 1020
        1021 1022 1039 1025 1026 1027 1028 1046 1040 1041 1042 1043 1044
        1045 953 996 997 998 993 1012 1011 1013 1014 1015 1017 1002 1003
        1004 1006 1009 1010 983 984 985 989 927 333 682 681 680 679 678
        689 690 691 692 693 694 695 670 669 668 667 726 727 725 724 723
        722 720 719 718 736 737 738 739 742 743 744 745 746 747 748 706
        705 704 703 702 701 707 708 709 655 656</index></_>
    <_>
      <sv_count>10</sv_count>
      <rho>-8.7484901204568172e-02</rho>
      <alpha>
        4.3716551458783650e+00 1.7858057782282573e+00
        3.3471277512698054e+00 10. 3.3145427928851210e+00
        6.5913700550039822e+00 -4.0526934515450925e+00 -10.
        -5.3578080717204388e+00 -10.</alpha>
      <index>
        1031 1038 1044 1045 1013 1010 162 30 28 27</index></_>
    <_>
      <sv_count>29</sv_count>
      <rho>-2.2763821646882922e+00</rho>
      <alpha>
        10. 10. 7.3445777304015607e+00 10. 10. 10. 10. 10. 10.
        3.2837850945168578e+00 10. 10. 10. 10. -10. -10. -10.
        -4.0524058221305026e+00 -10. -1.3369380813648317e+00 -10.
        -5.2390189214230825e+00 -10. -10. -10. -10. -10. -10. -10.</alpha>
      <index>
        1032 1033 1038 1023 1024 1041 1043 1044 994 1000 993 1015 1016
        1006 937 938 939 935 936 1492 170 169 931 930 934 932 933 1349
        1350</index></_>
    <_>
      <sv_count>84</sv_count>
      <rho>7.5096684650044365e-01</rho>
      <alpha>
        7.0335177748970708e+00 10. 10. 10. 10. 10. 10. 10. 10.
        3.5263411439087999e+00 4.5630632031939164e-02 10. 10. 10. 10.
        10. 2.1792640606063526e-01 6.2953032072038368e+00 10.
        9.5190693765831547e-01 10. 1.9540624493549337e+00 10. 10. 10.
        10. 10. 10. 10. 10. 10. 10. 10. 2.7702489960014889e+00 10. 10.
        10. 10. 10. 10. 10. 10. 10. 10. -10. -10. -10. -10. -10. -10.
        -10. -10. -10. -10. -10. -10. -10. -10. -10. -10. -10. -10. -10.
        -10. -10. -10. -10. -10. -10. -10. -10. -10. -10. -10. -10. -10.
        -10. -5.9541304722338595e-01 -10. -2.1995244998936534e+00 -10.
        -10. -10. -10.</alpha>
      <index>
        102 1403 1404 1405 1406 1401 1402 1029 1030 1031 1034 1037 1023
        1021 1024 1046 1040 1043 1044 951 994 995 998 999 1000 992 993
        1001 1013 1014 1015 1016 1018 1005 1006 1007 1008 1010 981 982
        980 986 988 989 1958 1968 1967 1966 1961 1960 1963 1964 334 340
        336 338 1477 1474 1475 1476 1470 1471 1472 1484 1485 1486 1487
        1488 1489 1478 1479 1480 1481 1482 1483 1468 357 355 343 347 349
        348 361 1490</index></_>
    <_>
      <sv_count>27</sv_count>
      <rho>1.1284788426880965e+00</rho>
      <alpha>
        10. 10. 10. 10. 10. 10. 10. 10. 10. 3.2595926646472178e+00 10.
        10. -2.9100459684232427e-01 -5.5907237200835147e-01
        -8.9686667675013132e-01 -10. -10. -10. -10. -10. -10. -10. -10.
        -1.5126490190464119e+00 -10. -10. -10.</alpha>
      <index>
        95 96 97 98 99 89 90 91 83 84 85 86 959 402 679 691 694 669 725
        724 723 745 746 747 748 706 707</index></_>
    <_>
      <sv_count>7</sv_count>
      <rho>1.5868976442559762e-01</rho>
      <alpha>
        10. 2.4390908175732346e+00 2.4246698911768214e+00
        -1.1981247728593842e+00 -3.3945881330332530e+00
