<?xml version="1.0"?>
<opencv_storage>
<opencv_ml_svm>
  <format>3</format>
  <svmType>C_SVC</svmType>
  <kernel>
    <type>CHI2</type>
    <gamma>5.</gamma></kernel>
  <C>10.</C>
  <term_criteria><epsilon>5.0000000000000002e-05</epsilon>
    <iterations>80000</iterations></term_criteria>
  <var_count>2</var_count>
  <class_count>6</class_count>
  <class_labels type_id="opencv-matrix">
    <rows>6</rows>
    <cols>1</cols>
    <dt>i</dt>
    <data>
      98 103 111 114 119 121</data></class_labels>
  <sv_total>360</sv_total>
  <support_vectors>
    <_>
      2.29050279e-01 3.45098048e-01</_>
    <_>
      2.23463684e-01 3.13725501e-01</_>
    <_>
      2.29050279e-01 8.35294127e-01</_>
    <_>
      2.01117322e-01 3.33333343e-01</_>
    <_>
      1. 4.11764711e-01</_>
    <_>
      1. 4.50980395e-01</_>
    <_>
      1. 3.88235301e-01</_>
    <_>
      1. 4.31372553e-01</_>
    <_>
      0. 4.82352942e-01</_>
    <_>
      1. 4.31372553e-01</_>
    <_>
      1. 3.92156869e-01</_>
    <_>
      9.94413435e-01 4.31372553e-01</_>
    <_>
      9.94413435e-01 4.35294122e-01</_>
    <_>
      1. 4.19607848e-01</_>
    <_>
      9.88826811e-01 4.27450985e-01</_>
    <_>
      5.02793305e-02 6.07843161e-01</_>
    <_>
      2.62569845e-01 2.90196091e-01</_>
    <_>
      2.45810062e-01 4.15686280e-01</_>
    <_>
      9.77653623e-01 7.84313738e-01</_>
    <_>
      9.77653623e-01 7.84313738e-01</_>
    <_>
      9.77653623e-01 7.88235307e-01</_>
    <_>
      9.83240247e-01 7.88235307e-01</_>
    <_>
      9.77653623e-01 7.88235307e-01</_>
    <_>
      9.83240247e-01 7.72549033e-01</_>
    <_>
      9.77653623e-01 7.88235307e-01</_>
    <_>
      9.77653623e-01 7.96078444e-01</_>
    <_>
      9.77653623e-01 7.96078444e-01</_>
    <_>
      9.72067058e-01 7.96078444e-01</_>
    <_>
      3.12849164e-01 9.76470590e-01</_>
    <_>
      3.24022353e-01 1.</_>
    <_>
      9.83240247e-01 1.</_>
    <_>
      9.88826811e-01 8.00000012e-01</_>
    <_>
      1. 9.25490201e-01</_>
    <_>
      9.83240247e-01 7.92156875e-01</_>
    <_>
      9.94413435e-01 7.84313738e-01</_>
    <_>
      0. 6.86274529e-01</_>
    <_>
      9.83240247e-01 7.60784328e-01</_>
    <_>
      9.83240247e-01 8.00000012e-01</_>
    <_>
      0. 6.23529434e-01</_>
    <_>
      1. 9.17647064e-01</_>
    <_>
      1. 8.11764717e-01</_>
    <_>
      3.18435758e-01 4.50980395e-01</_>
    <_>
      3.24022353e-01 4.35294122e-01</_>
    <_>
      1.95530728e-01 2.82352954e-01</_>
    <_>
      1.89944133e-01 2.78431386e-01</_>
    <_>
      1.89944133e-01 2.78431386e-01</_>
    <_>
      1.95530728e-01 2.82352954e-01</_>
    <_>
      2.01117322e-01 2.78431386e-01</_>
    <_>
      1.78770944e-01 3.01960796e-01</_>
    <_>
      1.45251393e-01 5.72549045e-01</_>
    <_>
      1.28491625e-01 2.00000003e-01</_>
    <_>
      1.28491625e-01 4.70588237e-01</_>
    <_>
      7.54189968e-01 9.01960805e-02</_>
    <_>
      1.11731842e-01 2.86274523e-01</_>
    <_>
      1.89944133e-01 5.37254930e-01</_>
    <_>
      1.78770944e-01 3.96078438e-01</_>
    <_>
      1.84357539e-01 3.84313732e-01</_>
    <_>
      1.84357539e-01 3.64705890e-01</_>
    <_>
      1.84357539e-01 3.76470596e-01</_>
    <_>
      4.46927369e-01 1.76470593e-01</_>
    <_>
      3.85474861e-01 6.31372571e-01</_>
    <_>
      9.77653623e-01 4.98039216e-01</_>
    <_>
      9.72067058e-01 8.98039222e-01</_>
    <_>
      9.77653623e-01 9.05882359e-01</_>
    <_>
      9.72067058e-01 4.70588237e-01</_>
    <_>
      9.60893869e-01 8.74509811e-01</_>
    <_>
      9.66480434e-01 8.03921580e-01</_>
    <_>
      9.55307245e-01 8.58823538e-01</_>
    <_>
      9.83240247e-01 4.82352942e-01</_>
    <_>
      9.77653623e-01 5.01960814e-01</_>
    <_>
      9.77653623e-01 5.01960814e-01</_>
    <_>
      9.66480434e-01 4.62745100e-01</_>
    <_>
      9.77653623e-01 4.90196079e-01</_>
    <_>
      9.72067058e-01 4.58823532e-01</_>
    <_>
      9.77653623e-01 4.82352942e-01</_>
    <_>
      9.72067058e-01 8.31372559e-01</_>
    <_>
      9.72067058e-01 4.86274511e-01</_>
    <_>
      6.20111704e-01 5.52941203e-01</_>
    <_>
      9.77653623e-01 8.03921580e-01</_>
    <_>
      9.77653623e-01 7.84313738e-01</_>
    <_>
      9.72067058e-01 8.23529422e-01</_>
    <_>
      5.13966501e-01 5.60784340e-01</_>
    <_>
      5.13966501e-01 6.00000024e-01</_>
    <_>
      5.08379877e-01 5.33333361e-01</_>
    <_>
      2.17877090e-01 3.37254912e-01</_>
    <_>
      2.01117322e-01 3.64705890e-01</_>
    <_>
      2.17877090e-01 3.21568638e-01</_>
    <_>
      1.95530728e-01 3.37254912e-01</_>
    <_>
      2.06703916e-01 3.37254912e-01</_>
    <_>
      1.95530728e-01 3.33333343e-01</_>
    <_>
      2.06703916e-01 7.96078444e-01</_>
    <_>
      2.34636873e-01 6.54901981e-01</_>
    <_>
      2.56983250e-01 5.17647088e-01</_>
    <_>
      2.01117322e-01 3.64705890e-01</_>
    <_>
      2.45810062e-01 4.35294122e-01</_>
    <_>
      2.01117322e-01 3.64705890e-01</_>
    <_>
      2.12290496e-01 3.56862754e-01</_>
    <_>
      1.89944133e-01 2.50980407e-01</_>
    <_>
      1.78770944e-01 2.31372550e-01</_>
    <_>
      1.89944133e-01 3.76470596e-01</_>
    <_>
      1.84357539e-01 1.80392161e-01</_>
    <_>
      6.14525139e-01 1.88235298e-01</_>
    <_>
      6.14525139e-01 1.29411772e-01</_>
    <_>
      5.92178762e-01 2.66666681e-01</_>
    <_>
      5.97765386e-01 2.03921571e-01</_>
    <_>
      5.25139689e-01 1.52941182e-01</_>
    <_>
      5.58659196e-01 2.94117659e-01</_>
    <_>
      4.74860340e-01 2.39215687e-01</_>
    <_>
      5.36312878e-01 2.86274523e-01</_>
    <_>
      4.74860340e-01 2.19607845e-01</_>
    <_>
      5.19553065e-01 2.15686277e-01</_>
    <_>
      6.42458081e-01 3.17647070e-01</_>
    <_>
      6.31284893e-01 3.49019617e-01</_>
    <_>
      7.03910589e-01 2.78431386e-01</_>
    <_>
      7.03910589e-01 2.07843140e-01</_>
    <_>
      7.03910589e-01 2.50980407e-01</_>
    <_>
      6.14525139e-01 1.88235298e-01</_>
    <_>
      7.03910589e-01 1.92156866e-01</_>
    <_>
      7.03910589e-01 2.07843140e-01</_>
    <_>
      7.26256967e-01 1.56862751e-01</_>
    <_>
      6.14525139e-01 1.76470593e-01</_>
    <_>
      5.97765386e-01 8.07843149e-01</_>
    <_>
      7.15083778e-01 1.52941182e-01</_>
    <_>
      7.03910589e-01 1.92156866e-01</_>
    <_>
      7.15083778e-01 1.72549024e-01</_>
    <_>
      7.26256967e-01 1.49019614e-01</_>
    <_>
      6.14525139e-01 1.68627456e-01</_>
    <_>
      5.36312878e-01 2.50980407e-01</_>
    <_>
      6.70391083e-01 4.31372561e-02</_>
    <_>
      7.15083778e-01 1.52941182e-01</_>
    <_>
      7.03910589e-01 2.00000003e-01</_>
    <_>
      7.15083778e-01 1.72549024e-01</_>
    <_>
      7.26256967e-01 1.49019614e-01</_>
    <_>
      6.14525139e-01 1.56862751e-01</_>
    <_>
      5.47486007e-01 2.11764708e-01</_>
    <_>
      0. 0.</_>
    <_>
      6.70391083e-01 4.70588244e-02</_>
    <_>
      7.03910589e-01 1.92156866e-01</_>
    <_>
      7.03910589e-01 2.00000003e-01</_>
    <_>
      6.70391083e-01 1.72549024e-01</_>
    <_>
      6.70391083e-01 2.00000003e-01</_>
    <_>
      5.58659196e-01 1.56862751e-01</_>
    <_>
      5.02793312e-01 1.17647059e-01</_>
    <_>
      9.72067058e-01 1.92156866e-01</_>
    <_>
      1. 8.62745106e-01</_>
    <_>
      9.88826811e-01 3.45098048e-01</_>
    <_>
      0. 5.37254930e-01</_>
    <_>
      9.83240247e-01 3.84313732e-01</_>
    <_>
      0. 6.23529434e-01</_>
    <_>
      9.88826811e-01 4.94117647e-01</_>
    <_>
      0. 7.09803939e-01</_>
    <_>
      5.58659201e-03 6.39215708e-01</_>
    <_>
      0. 7.21568644e-01</_>
    <_>
      1. 9.09803927e-01</_>
    <_>
      1. 6.70588255e-01</_>
    <_>
      0. 7.01960802e-01</_>
    <_>
      9.88826811e-01 9.21568632e-01</_>
    <_>
      9.66480434e-01 8.54901969e-01</_>
    <_>
      9.66480434e-01 9.09803927e-01</_>
    <_>
      9.72067058e-01 8.58823538e-01</_>
    <_>
      9.88826811e-01 7.88235307e-01</_>
    <_>
      0. 7.17647076e-01</_>
    <_>
      0. 1.</_>
    <_>
      9.72067058e-01 5.76470613e-01</_>
    <_>
      9.60893869e-01 6.35294139e-01</_>
    <_>
      3.35195541e-01 1.</_>
    <_>
      3.01675975e-01 6.00000024e-01</_>
    <_>
      3.01675975e-01 6.07843161e-01</_>
    <_>
      5.02793305e-02 5.64705908e-01</_>
    <_>
      4.30167586e-01 1.68627456e-01</_>
    <_>
      0. 0.</_>
    <_>
      4.46927369e-01 3.76470596e-01</_>
    <_>
      4.46927369e-01 2.03921571e-01</_>
    <_>
      2.40223467e-01 3.41176480e-01</_>
    <_>
      2.40223467e-01 3.41176480e-01</_>
    <_>
      2.34636873e-01 3.37254912e-01</_>
    <_>
      2.40223467e-01 3.33333343e-01</_>
    <_>
      2.34636873e-01 3.45098048e-01</_>
    <_>
      3.63128483e-01 3.49019617e-01</_>
    <_>
      3.63128483e-01 3.72549027e-01</_>
    <_>
      3.91061455e-01 4.54901963e-01</_>
    <_>
      3.91061455e-01 5.25490224e-01</_>
    <_>
      2.29050279e-01 3.52941185e-01</_>
    <_>
      9.83240247e-01 5.17647088e-01</_>
    <_>
      5.58659201e-03 6.27451003e-01</_>
    <_>
      5.58659201e-03 5.64705908e-01</_>
    <_>
      1. 5.64705908e-01</_>
    <_>
      9.77653623e-01 7.88235307e-01</_>
    <_>
      1. 5.68627477e-01</_>
    <_>
      0. 6.15686297e-01</_>
    <_>
      0. 6.15686297e-01</_>
    <_>
      0. 6.43137276e-01</_>
    <_>
      0. 6.35294139e-01</_>
    <_>
      1. 7.49019623e-01</_>
    <_>
      9.94413435e-01 7.49019623e-01</_>
    <_>
      1. 4.58823532e-01</_>
    <_>
      0. 6.19607866e-01</_>
    <_>
      0. 6.54901981e-01</_>
    <_>
      9.88826811e-01 5.33333361e-01</_>
    <_>
      9.77653623e-01 4.98039216e-01</_>
    <_>
      0. 6.39215708e-01</_>
    <_>
      0. 6.07843161e-01</_>
    <_>
      0. 5.80392182e-01</_>
    <_>
      0. 6.19607866e-01</_>
    <_>
      0. 5.80392182e-01</_>
    <_>
      9.77653623e-01 3.52941185e-01</_>
    <_>
      9.88826811e-01 4.66666669e-01</_>
    <_>
      9.44134057e-01 4.19607848e-01</_>
    <_>
      5.58659211e-02 1.56862751e-01</_>
    <_>
      1.67597771e-01 3.88235301e-01</_>
    <_>
      9.77653623e-01 2.86274523e-01</_>
    <_>
      9.66480434e-01 3.21568638e-01</_>
    <_>
      9.83240247e-01 5.45098066e-01</_>
    <_>
      1. 8.98039222e-01</_>
    <_>
      9.83240247e-01 6.00000024e-01</_>
    <_>
      9.83240247e-01 8.27450991e-01</_>
    <_>
      9.88826811e-01 6.07843161e-01</_>
    <_>
      9.88826811e-01 7.96078444e-01</_>
    <_>
      1. 5.64705908e-01</_>
    <_>
      9.94413435e-01 7.92156875e-01</_>
    <_>
      0. 5.60784340e-01</_>
    <_>
      1. 7.68627465e-01</_>
    <_>
      9.66480434e-01 6.86274529e-01</_>
    <_>
      9.94413435e-01 7.84313738e-01</_>
    <_>
      9.38547492e-01 6.86274529e-01</_>
    <_>
      9.72067058e-01 8.86274517e-01</_>
    <_>
      9.55307245e-01 7.64705896e-01</_>
    <_>
      9.60893869e-01 8.98039222e-01</_>
    <_>
      9.66480434e-01 8.27450991e-01</_>
    <_>
      9.72067058e-01 9.33333337e-01</_>
    <_>
      9.72067058e-01 8.62745106e-01</_>
    <_>
      9.88826811e-01 9.29411769e-01</_>
    <_>
      9.72067058e-01 8.43137264e-01</_>
    <_>
      9.49720681e-01 6.35294139e-01</_>
    <_>
      9.55307245e-01 6.66666687e-01</_>
    <_>
      9.72067058e-01 7.01960802e-01</_>
    <_>
      9.83240247e-01 7.25490212e-01</_>
    <_>
      9.66480434e-01 6.00000024e-01</_>
    <_>
      9.55307245e-01 5.88235319e-01</_>
    <_>
      5.30726254e-01 8.27450991e-01</_>
    <_>
      5.53072631e-01 1.</_>
    <_>
      5.81005573e-01 9.68627453e-01</_>
    <_>
      5.41899443e-01 9.41176474e-01</_>
    <_>
      3.35195549e-02 9.68627453e-01</_>
    <_>
      3.91061455e-02 9.29411769e-01</_>
    <_>
      1. 7.17647076e-01</_>
    <_>
      5.58659201e-03 5.64705908e-01</_>
    <_>
      0. 5.21568656e-01</_>
    <_>
      0. 5.45098066e-01</_>
    <_>
      5.58659201e-03 5.84313750e-01</_>
    <_>
      1.89944133e-01 2.98039228e-01</_>
    <_>
      1.95530728e-01 3.60784322e-01</_>
    <_>
      1.95530728e-01 3.41176480e-01</_>
    <_>
      2.01117322e-01 3.68627459e-01</_>
    <_>
      2.01117322e-01 2.78431386e-01</_>
    <_>
      1.67597771e-01 4.31372561e-02</_>
    <_>
      1.95530728e-01 3.84313732e-01</_>
    <_>
      2.01117322e-01 3.13725501e-01</_>
    <_>
      2.01117322e-01 3.64705890e-01</_>
    <_>
      2.34636873e-01 3.13725501e-01</_>
    <_>
      2.01117322e-01 3.29411775e-01</_>
    <_>
      2.29050279e-01 3.49019617e-01</_>
    <_>
      2.06703916e-01 2.70588249e-01</_>
    <_>
      6.14525139e-01 1.56862751e-01</_>
    <_>
      2.40223467e-01 4.00000006e-01</_>
    <_>
      6.14525139e-01 1.56862751e-01</_>
    <_>
      5.58659196e-01 1.76470593e-01</_>
    <_>
      2.17877090e-01 3.96078438e-01</_>
    <_>
      6.14525139e-01 2.39215687e-01</_>
    <_>
      7.03910589e-01 2.15686277e-01</_>
    <_>
      6.70391083e-01 1.92156866e-01</_>
    <_>
      5.58659196e-01 1.76470593e-01</_>
    <_>
      2.17877090e-01 2.70588249e-01</_>
    <_>
      7.03910589e-01 1.92156866e-01</_>
    <_>
      6.36871517e-01 2.07843140e-01</_>
    <_>
      6.70391083e-01 2.00000003e-01</_>
    <_>
      6.70391083e-01 2.00000003e-01</_>
    <_>
      5.58659196e-01 1.88235298e-01</_>
    <_>
      4.46927369e-01 1.76470593e-01</_>
    <_>
      6.70391083e-01 1.92156866e-01</_>
    <_>
      6.70391083e-01 2.00000003e-01</_>
    <_>
      6.70391083e-01 1.56862751e-01</_>
    <_>
      6.70391083e-01 8.23529437e-02</_>
    <_>
      7.15083778e-01 1.80392161e-01</_>
    <_>
      6.70391083e-01 2.00000003e-01</_>
    <_>
      6.70391083e-01 2.00000003e-01</_>
    <_>
      7.15083778e-01 2.23529413e-01</_>
    <_>
      6.70391083e-01 1.41176477e-01</_>
    <_>
      6.70391083e-01 2.00000003e-01</_>
    <_>
      7.03910589e-01 2.62745112e-01</_>
    <_>
      7.15083778e-01 2.23529413e-01</_>
    <_>
      5.86592197e-01 1.68627456e-01</_>
    <_>
      6.70391083e-01 5.09803928e-02</_>
    <_>
      7.26256967e-01 1.41176477e-01</_>
    <_>
      7.26256967e-01 1.49019614e-01</_>
    <_>
      6.70391083e-01 1.68627456e-01</_>
    <_>
      7.03910589e-01 2.62745112e-01</_>
    <_>
      7.15083778e-01 2.35294119e-01</_>
    <_>
      6.14525139e-01 1.29411772e-01</_>
    <_>
      5.86592197e-01 1.72549024e-01</_>
    <_>
      6.70391083e-01 5.49019612e-02</_>
    <_>
      7.26256967e-01 1.41176477e-01</_>
    <_>
      6.70391083e-01 1.88235298e-01</_>
    <_>
      7.03910589e-01 2.78431386e-01</_>
    <_>
      7.03910589e-01 2.94117659e-01</_>
    <_>
      2.06703916e-01 2.74509817e-01</_>
    <_>
      1. 6.78431392e-01</_>
    <_>
      9.88826811e-01 6.23529434e-01</_>
    <_>
      0. 6.94117665e-01</_>
    <_>
      9.32960868e-01 4.62745100e-01</_>
    <_>
      9.60893869e-01 4.58823532e-01</_>
    <_>
      9.66480434e-01 4.70588237e-01</_>
    <_>
      9.72067058e-01 4.58823532e-01</_>
    <_>
      8.93854737e-01 1.96078435e-01</_>
    <_>
      9.21787739e-01 1.56862751e-01</_>
    <_>
      9.66480434e-01 3.01960796e-01</_>
    <_>
      9.60893869e-01 3.64705890e-01</_>
    <_>
      9.49720681e-01 4.07843143e-01</_>
    <_>
      9.60893869e-01 4.58823532e-01</_>
    <_>
      8.88268173e-01 2.66666681e-01</_>
    <_>
      6.87150836e-01 1.64705887e-01</_>
    <_>
      7.20670402e-01 1.56862751e-01</_>
    <_>
      8.93854737e-01 2.31372550e-01</_>
    <_>
      9.27374303e-01 3.45098048e-01</_>
    <_>
      9.49720681e-01 2.86274523e-01</_>
    <_>
      0. 1.96078438e-02</_>
    <_>
      6.98324025e-01 9.41176489e-02</_>
    <_>
      7.03910589e-01 1.68627456e-01</_>
    <_>
      7.03910589e-01 1.64705887e-01</_>
    <_>
      3.46368700e-01 3.80392164e-01</_>
    <_>
      1. 3.92156869e-01</_>
    <_>
      9.94413435e-01 4.07843143e-01</_>
    <_>
      5.58659201e-03 6.39215708e-01</_>
    <_>
      0. 6.27451003e-01</_>
    <_>
      9.83240247e-01 5.01960814e-01</_>
    <_>
      9.77653623e-01 8.19607854e-01</_>
    <_>
      0. 6.07843161e-01</_>
    <_>
      9.94413435e-01 5.21568656e-01</_>
    <_>
      0. 5.09803951e-01</_>
    <_>
      9.60893869e-01 8.23529422e-01</_>
    <_>
      9.49720681e-01 8.54901969e-01</_>
    <_>
      9.49720681e-01 8.50980401e-01</_>
    <_>
      9.83240247e-01 7.88235307e-01</_>
    <_>
      9.83240247e-01 7.92156875e-01</_>
    <_>
      9.83240247e-01 8.07843149e-01</_>
    <_>
      9.83240247e-01 7.92156875e-01</_>
    <_>
      9.88826811e-01 8.11764717e-01</_>
    <_>
      9.77653623e-01 8.43137264e-01</_>
    <_>
      9.83240247e-01 8.43137264e-01</_>
    <_>
      9.83240247e-01 8.03921580e-01</_>
    <_>
      9.88826811e-01 7.60784328e-01</_>
    <_>
      9.83240247e-01 7.96078444e-01</_>
    <_>
      9.83240247e-01 8.03921580e-01</_>
    <_>
      0. 6.31372571e-01</_>
    <_>
      5.58659201e-03 5.88235319e-01</_>
    <_>
      0. 2.43137255e-01</_>
    <_>
      9.21787739e-01 1.05882354e-01</_>
    <_>
      0. 4.70588237e-01</_>
    <_>
      9.83240247e-01 3.41176480e-01</_>
    <_>
      9.88826811e-01 3.60784322e-01</_></support_vectors>
  <decision_functions>
    <_>
      <sv_count>9</sv_count>
      <rho>-5.8898152882098831e-01</rho>
      <alpha>
        2.7293237069739691e+00 4.4764254013469595e-01
        4.3720371189580876e-01 10. 8.2027497442780140e-01
        -8.1051310424015466e-01 -1.7145862379421042e+00 -10.
        -1.9093455912500186e+00</alpha>
      <index>
        107 135 81 83 240 60 181 180 165</index></_>
    <_>
      <sv_count>14</sv_count>
      <rho>3.5674704663379464e-01</rho>
      <alpha>
        1.7185616016733185e+00 1.6995978341636870e+00
        6.7255832650184599e+00 1.4381196357879371e+00
        2.1044851727340910e+00 -3.0778399282172714e-01
        -3.5444424687259152e-01 -1.7572150873233747e+00
        -9.1153487451725623e-01 -1.0723219834876081e+00
        -1.7344833362961234e+00 -2.0164094116593922e-01
        -7.1113451669394818e+00 -2.3557787995339252e-01</alpha>
      <index>
        135 128 132 77 241 243 162 227 208 209 207 30 356 355</index></_>
    <_>
      <sv_count>24</sv_count>
      <rho>2.4580141723651228e-01</rho>
      <alpha>
        10. 2.9173369629068269e+00 6.2958166894517777e+00 10. 10.
        5.6354013410307147e+00 6.4573083656442959e-02
        5.5184703685995160e+00 4.2403235426638171e+00 10. 10.
        2.1507806814079844e+00 -2.9010100486739449e-01
        -2.0345464106487303e+00 -9.8386360517054658e+00 -10. -10. -10.
        -10. -7.6836463526315579e-01 -10. -10. -3.3971568162167434e+00
        -4.9389775101558975e-01</alpha>
      <index>
        135 128 129 131 132 113 121 122 124 125 119 241 197 340 325 326
        327 328 313 319 320 321 322 332</index></_>
    <_>
      <sv_count>85</sv_count>
      <rho>8.5136683635288735e-01</rho>
      <alpha>
        10. 10. 10. 10. 10. 5.9909944193513551e+00 10. 10. 10. 10. 10.
        10. 10. 10. 10. 10. 10. 10. 10. 10. 10. 10. 10. 10. 10. 10. 10.
        10. 10. 10. 10. 10. 10. 10. 10. 10. 10. 10. 10. 10. 10.
        1.4275568978221420e+00 -10. -2.4631054613988432e+00
        -9.9882074298506502e+00 -10. -10. -9.8746348751881339e+00
        -5.1238488947678027e+00 -10. -10. -10. -10. -10. -10. -10. -10.
        -10. -10. -10. -10. -1.3088150578960871e+00
        -8.6599395980719791e+00 -10. -10. -10. -10. -10. -10. -10. -10.
        -10. -10. -10. -10. -10. -10. -10. -10. -10. -10. -10. -10. -10.
        -10.</alpha>
      <index>
        109 106 107 108 111 112 110 101 104 105 102 103 135 136 137 138
        139 140 141 142 128 129 130 131 132 133 134 114 115 116 113 122
        123 124 125 126 127 117 118 119 120 240 59 17 52 171 172 170 169
        298 299 300 302 303 295 291 292 304 296 297 263 282 283 284 285
        286 281 279 280 287 288 289 290 268 269 270 271 265 266 274 275
        276 277 278 273</index></_>
    <_>
      <sv_count>11</sv_count>
      <rho>-3.9154837652151786e-01</rho>
      <alpha>
        6.0705973183786022e-01 1.2144192523578012e+00
        8.6548972068899788e-01 1.0150569864110255e-01
        7.4824318661334877e-01 1.2583804076224164e-01
        9.7178908000111086e-01 -1.7388356597367391e+00
        -9.1801720792240893e-01 -4.5069227528515377e-01
        -1.5267995679581607e+00</alpha>
      <index>
        109 107 135 128 82 239 242 2 176 92 100</index></_>
    <_>
      <sv_count>10</sv_count>
      <rho>7.0084620031654388e-01</rho>
      <alpha>
        1.8197530532388306e+00 2.8150745826090504e+00
        1.4133345666338577e+00 -4.2281007034522489e-01
        -4.6824363273860019e-02 -2.8777542660134919e-01
        -3.8541741462266819e+00 -7.7667742564268616e-01
        -3.2044338702143144e-01 -3.3945738337050690e-01</alpha>
      <index>
        178 41 29 243 162 224 209 207 30 356</index></_>
    <_>
      <sv_count>9</sv_count>
      <rho>5.4697101875629328e-01</rho>
      <alpha>
        2.0180478762852605e+00 1.4526150209053232e+00
        -7.7725869153170615e-03 -1.4885401973942344e-01
        -7.4526787577577136e-01 -1.9652059634190774e-01
        -4.5542036578714545e-01 -1.2171176511221466e+00
        -6.9970980150887274e-01</alpha>
      <index>
        178 165 185 338 340 309 325 320 332</index></_>
    <_>
      <sv_count>11</sv_count>
      <rho>1.3990044160299122e+00</rho>
      <alpha>
        10. 10. 4.1568415004396471e+00 8.8959944127144794e+00
        2.6722619835275951e-01 1.6246521759644390e+00 -10. -10.
        -4.5816295762788624e+00 -3.6308471119246488e-01 -10.</alpha>
      <index>
        329 178 179 41 42 28 17 171 172 304 264</index></_>
    <_>
      <sv_count>8</sv_count>
      <rho>1.2655077587904320e-01</rho>
      <alpha>
        10. 7.1136692209989301e+00 7.9766622657194874e+00
        4.3002283524741927e+00 -8.0365823434653798e+00
        -7.3314115167269120e+00 -10. -4.0225659790003281e+00</alpha>
      <index>
        166 167 41 28 2 94 92 91</index></_>
    <_>
      <sv_count>176</sv_count>
      <rho>-1.6958223819583016e+00</rho>
      <alpha>
        10. 10. 10. 10. 10. 10. 10. 10. 10. 10. 10. 10. 10. 10. 10. 10.
        10. 10. 10. 10. 10. 10. 10. 10. 10. 10. 10. 10. 10. 10. 10. 10.
        10. 10. 7.1139218355241596e+00 4.0991972627236342e+00 10. 10.
        10. 10. 10. 6.0538829589108696e+00 10. 10. 10. 10. 10. 10. 10.
        10. 10. 10. 5.9342291180277784e-01 10. 10. 10. 10. 10.
        2.3582936813392408e+00 10. 10. 10. 10. 10. 10. 10.
        1.9846749075291417e+00 10. 10. 10. 10. 10. 10. 10. 10. 10. 10.
        10. 10. 10. 10. 10. 10. 10. 10. 10. 10. 10. 10. -10. -10. -10.
        -10. -10. -4.5044439030772869e+00 -10. -10. -10. -10. -10. -10.
        -10. -10. -10. -10. -10. -10. -10. -10. -10. -10. -10. -10. -10.
        -10. -10. -10. -10. -10. -10. -10. -10. -10. -10. -10. -10. -10.
        -10. -10. -10. -10. -10. -7.2621744676640176e+00 -10.
        -3.2694537177347365e+00 -10. -10. -10. -10. -10. -10. -10. -10.
        -10. -10. -10. -10. -10. -10. -10. -10. -10. -10. -10. -10. -10.
        -10. -10. -7.1673214693537917e+00 -10. -10. -10. -10. -10. -10.
        -10. -10. -10. -10. -10. -10. -10. -10. -10. -10. -10.</alpha>
      <index>
        246 249 248 247 245 163 164 156 157 154 155 160 161 158 159 232
        233 230 231 235 234 224 225 222 223 228 229 226 227 237 236 238
        145 144 143 152 153 149 148 147 146 151 150 215 216 213 214 219
        220 221 217 218 209 207 211 212 210 34 32 33 31 353 354 356 359
        358 357 14 5 4 8 6 7 13 11 12 9 10 307 306 308 330 331 40 38 37
        35 36 39 193 192 196 195 194 183 184 185 186 190 191 187 188 189
        199 200 203 204 201 202 197 198 206 205 339 338 341 340 336 337
        345 346 344 348 347 343 342 334 335 352 349 351 350 310 311 325
        324 312 313 314 315 316 317 318 322 323 333 332 67 61 63 62 64
        65 66 27 24 22 21 23 26 25 79 78 80 19 20 18 74 71 72 73 76 75
        68 69 70</index></_>
    <_>
      <sv_count>15</sv_count>
      <rho>-1.8473244005100886e-01</rho>
      <alpha>
        6.9395137468934776e-02 5.9621056691712875e+00
        8.2353217563715635e+00 10. 1.4894452453933515e+00
        6.1360469924886962e-01 10. -10. -9.2522053587225770e+00
        -6.2739186821929689e+00 -2.6072472283619428e+00
        -2.8454321380829435e+00 -2.4821179224128112e+00
        -2.5408252168546857e+00 -3.6812596102607015e-01</alpha>
      <index>
        244 168 208 209 207 30 356 53 52 49 51 50 170 304 255</index></_>
    <_>
      <sv_count>11</sv_count>
      <rho>-5.8093935767451499e-01</rho>
      <alpha>
        9.3031840700225610e-01 1.4935339107512427e-01
        2.3164405465643751e+00 10. 2.9645961001935661e-01
        8.5260326705799949e-01 3.6670856643393973e-01
        5.2271027787229696e-01 -10. -2.1008244771284263e+00
        -3.3337695888969261e+00</alpha>
      <index>
        244 224 208 209 207 15 30 356 55 90 100</index></_>
    <_>
      <sv_count>24</sv_count>
      <rho>-6.2463374400209609e-03</rho>
      <alpha>
        1.2157722450360209e+00 8.4983607681084783e-01 10. 10. 10. 10.
        10. 1.7117573282698966e+00 5.2917824014894004e+00 10. 10.
        5.4435839286863119e-01 -3.7749524427963049e-01 -10.
        -1.2703276236606591e+00 -9.5644788221148396e+00 -10. -10. -10.
        -2.7598217732844543e+00 -4.1927285526564901e+00 -10. -10.
        -1.4486544284787166e+00</alpha>
      <index>
        185 340 325 326 327 328 313 314 319 320 321 332 53 52 49 170 301
        293 294 297 283 286 290 255</index></_>
    <_>
      <sv_count>10</sv_count>
      <rho>-4.9919954671965705e-01</rho>
      <alpha>
        6.4321510614619504e-01 6.1565180326047697e-01
        7.8297766442410832e-01 1.1828190453282336e-02
        9.0160163828151307e-01 6.4296326135504778e-01
        -1.2436149096468432e+00 -3.8360101091621474e-01
        -2.5153307102592543e-01 -1.7194886723316412e+00</alpha>
      <index>
        185 340 325 326 320 332 2 54 90 100</index></_>
    <_>
      <sv_count>54</sv_count>
      <rho>-2.5111797474227688e+00</rho>
      <alpha>
        10. 10. 10. 10. 10. 10. 10. 10. 10. 10. 6.4882916503958281e+00
        10. 10. 10. 10. 4.2907808488937302e+00 10. 10. 10. 10. 10. 10.
        10. 10. 10. 10. 10. -7.4951054575215288e+00 -10. -10. -10.
        -7.3384542997671147e+00 -10. -10. -10. -10. -10. -10. -10. -10.
        -10. -5.9455127420009175e+00 -10. -10. -10. -10. -10. -10. -10.
        -10. -10. -10. -10. -10.</alpha>
      <index>
        17 16 46 47 43 44 45 49 51 48 171 261 259 260 264 262 257 258
        267 272 305 250 251 254 253 256 252 182 0 1 3 55 56 57 58 173
        174 176 177 175 95 90 93 98 99 100 97 96 89 88 85 84 87 86</index></_></decision_functions></opencv_ml_svm>
</opencv_storage>
